/*
 * Copyright (c) 2025 EdgeImpulse Inc.
 *
 * Generated by Edge Impulse and licensed under the applicable Edge Impulse
 * Terms of Service. Community and Professional Terms of Service
 * (https://edgeimpulse.com/legal/terms-of-service) or Enterprise Terms of
 * Service (https://edgeimpulse.com/legal/enterprise-terms-of-service),
 * according to your product plan subscription (the “License”).
 *
 * This software, documentation and other associated files (collectively referred
 * to as the “Software”) is a single SDK variation generated by the Edge Impulse
 * platform and requires an active paid Edge Impulse subscription to use this
 * Software for any purpose.
 *
 * You may NOT use this Software unless you have an active Edge Impulse subscription
 * that meets the eligibility requirements for the applicable License, subject to
 * your full and continued compliance with the terms and conditions of the License,
 * including without limitation any usage restrictions under the applicable License.
 *
 * If you do not have an active Edge Impulse product plan subscription, or if use
 * of this Software exceeds the usage limitations of your Edge Impulse product plan
 * subscription, you are not permitted to use this Software and must immediately
 * delete and erase all copies of this Software within your control or possession.
 * Edge Impulse reserves all rights and remedies available to enforce its rights.
 *
 * Unless required by applicable law or agreed to in writing, the Software is
 * distributed on an "AS IS" BASIS, WITHOUT WARRANTIES OR CONDITIONS OF ANY KIND,
 * either express or implied. See the License for the specific language governing
 * permissions, disclaimers and limitations under the License.
 */
// Generated on: 03.03.2025 15:54:17

#include <stdio.h>
#include <stdlib.h>
#include "edge-impulse-sdk/tensorflow/lite/c/builtin_op_data.h"
#include "edge-impulse-sdk/tensorflow/lite/c/common.h"
#include "edge-impulse-sdk/tensorflow/lite/micro/micro_mutable_op_resolver.h"
#include "edge-impulse-sdk/porting/ei_classifier_porting.h"

#if EI_CLASSIFIER_PRINT_STATE
#if defined(__cplusplus) && EI_C_LINKAGE == 1
extern "C" {
    extern void ei_printf(const char *format, ...);
}
#else
extern void ei_printf(const char *format, ...);
#endif
#endif

#define STRINGIZE(x) #x
#define STRINGIZE_VALUE_OF(x) STRINGIZE(x)

#if defined (__GNUC__)  /* GNU compiler */
#define ALIGN(X) __attribute__((aligned(X)))
#define DEFINE_SECTION(x) __attribute__((section(x)))
#elif defined (_MSC_VER)
#define ALIGN(X) __declspec(align(X))
#elif defined (__TASKING__) /* TASKING Compiler */
#define ALIGN(X) __align(X)
#define DEFINE_SECTION(x) __attribute__((section(x)))
#elif defined (__ARMCC_VERSION) /* Arm Compiler */
#define ALIGN(X) __ALIGNED(x)
#define DEFINE_SECTION(x) __attribute__((section(x)))
#elif defined (__ICCARM__) /* IAR Compiler */
#define ALIGN(x) __attribute__((aligned(x)))
#define DEFINE_SECTION(x) __attribute__((section(x)))
#elif defined (__clang__) /* LLVM/Clang Compiler */
#define ALIGN(X) __ALIGNED(x)
#define DEFINE_SECTION(x) __attribute__((section(x)))
#endif

#if defined(EI_MODEL_SECTION) && (defined(__GNUC__) || defined(__clang__))
#define MODEL_SECTION(X) __attribute__((section(STRINGIZE_VALUE_OF(X))))
#else
#define MODEL_SECTION(X)
#endif

#ifndef EI_MAX_SCRATCH_BUFFER_COUNT
#ifndef CONFIG_IDF_TARGET_ESP32S3
#define EI_MAX_SCRATCH_BUFFER_COUNT 14
#else
#define EI_MAX_SCRATCH_BUFFER_COUNT 28
#endif // CONFIG_IDF_TARGET_ESP32S3
#endif // EI_MAX_SCRATCH_BUFFER_COUNT

#ifndef EI_MAX_OVERFLOW_BUFFER_COUNT
#define EI_MAX_OVERFLOW_BUFFER_COUNT 10
#endif // EI_MAX_OVERFLOW_BUFFER_COUNT

using namespace tflite;
using namespace tflite::ops;
using namespace tflite::ops::micro;

namespace {

#if defined(EI_CLASSIFIER_ALLOCATION_STATIC_HIMAX) || defined(EI_CLASSIFIER_ALLOCATION_STATIC_HIMAX_GNU)
constexpr int kTensorArenaSize = 242576;
#else
constexpr int kTensorArenaSize = 241552;
#endif

#if defined(EI_CLASSIFIER_ALLOCATION_STATIC)
#if defined (EI_TENSOR_ARENA_LOCATION)
uint8_t tensor_arena[kTensorArenaSize] ALIGN(16) DEFINE_SECTION(STRINGIZE_VALUE_OF(EI_TENSOR_ARENA_LOCATION));
#else
uint8_t tensor_arena[kTensorArenaSize] ALIGN(16);
#endif
#elif defined(EI_CLASSIFIER_ALLOCATION_STATIC_HIMAX)
#pragma Bss(".tensor_arena")
uint8_t tensor_arena[kTensorArenaSize] ALIGN(16);
#pragma Bss()
#elif defined(EI_CLASSIFIER_ALLOCATION_STATIC_HIMAX_GNU)
uint8_t tensor_arena[kTensorArenaSize] ALIGN(16) __attribute__((section(".tensor_arena")));
#else
#define EI_CLASSIFIER_ALLOCATION_HEAP 1
uint8_t* tensor_arena = NULL;
#endif

static uint8_t* tensor_boundary;
static uint8_t* current_location;

template <int SZ, class T> struct TfArray {
  int sz; T elem[SZ];
};

enum used_operators_e {
  OP_CONV_2D, OP_DEPTHWISE_CONV_2D, OP_PAD, OP_ADD, OP_SOFTMAX,  OP_LAST
};

struct TensorInfo_t { // subset of TfLiteTensor used for initialization from constant memory
  TfLiteAllocationType allocation_type;
  TfLiteType type;
  void* data;
  TfLiteIntArray* dims;
  size_t bytes;
  TfLiteQuantization quantization;
};

typedef struct {
  TfLiteTensor tensor;
  int16_t index;
} TfLiteTensorWithIndex;

typedef struct {
  TfLiteEvalTensor tensor;
  int16_t index;
} TfLiteEvalTensorWithIndex;

TfLiteContext ctx{};
static const int MAX_TFL_TENSOR_COUNT = 4;
static TfLiteTensorWithIndex tflTensors[MAX_TFL_TENSOR_COUNT];
static const int MAX_TFL_EVAL_COUNT = 4;
static TfLiteEvalTensorWithIndex tflEvalTensors[MAX_TFL_EVAL_COUNT];
TfLiteRegistration registrations[OP_LAST];

namespace g0 {
const TfArray<4, int> tensor_dimension0 = { 4, { 1,96,96,1 } };
const TfArray<1, float> quant0_scale = { 1, { 0.0039215688593685627, } };
const TfArray<1, int> quant0_zero = { 1, { -128 } };
const TfLiteAffineQuantization quant0 = { (TfLiteFloatArray*)&quant0_scale, (TfLiteIntArray*)&quant0_zero, 0 };
const MODEL_SECTION(EI_MODEL_SECTION) ALIGN(16) int32_t tensor_data1[4*2] = { 
  0, 0, 
  0, 1, 
  0, 1, 
  0, 0, 
};
const TfArray<2, int> tensor_dimension1 = { 2, { 4,2 } };
const MODEL_SECTION(EI_MODEL_SECTION) ALIGN(8) int32_t tensor_data2[2] = { 15568, -24643, };
const TfArray<1, int> tensor_dimension2 = { 1, { 2 } };
const TfArray<2, float> quant2_scale = { 2, { 0.00032381713390350342, 0.00019439715833868831, } };
const TfArray<2, int> quant2_zero = { 2, { 0,0 } };
const TfLiteAffineQuantization quant2 = { (TfLiteFloatArray*)&quant2_scale, (TfLiteIntArray*)&quant2_zero, 0 };
const MODEL_SECTION(EI_MODEL_SECTION) ALIGN(16) int8_t tensor_data3[2*1*1*32] = { 
  /* [0][0][][] */ 11,-28,-42,97,39,-2,-46,28,67,-34,-6,-31,-29,33,-41,23,45,-28,-17,-23,87,70,15,-57,-47,-62,29,127,6,-11,69,46, 
  /* [1][0][][] */ 52,66,67,-63,-92,67,-3,11,-36,-14,31,96,101,38,43,-7,-35,0,-78,-79,-78,30,37,95,74,66,-64,-41,88,-92,-127,-23, 
};
const TfArray<4, int> tensor_dimension3 = { 4, { 2,1,1,32 } };
const TfArray<2, float> quant3_scale = { 2, { 0.0068590203300118446, 0.0041176760569214821, } };
const TfArray<2, int> quant3_zero = { 2, { 0,0 } };
const TfLiteAffineQuantization quant3 = { (TfLiteFloatArray*)&quant3_scale, (TfLiteIntArray*)&quant3_zero, 0 };
const MODEL_SECTION(EI_MODEL_SECTION) ALIGN(16) int32_t tensor_data4[32] = { 166, -9, 49, 1011, 1051, 56, -513, 532, 200, -820, -183, -50, 79, 239, -26, 57, 48, -1000, 824, -383, 264, 655, 141, 43, 80, -20, 839, 2360, -5, -97, 1617, 197, };
const TfArray<1, int> tensor_dimension4 = { 1, { 32 } };
const TfArray<32, float> quant4_scale = { 32, { 5.1764349336735904e-05, 5.6305088946828619e-05, 5.2381878049345687e-05, 6.2093400629237294e-05, 4.8105655878316611e-05, 5.4296331654768437e-05, 4.3873682443518192e-05, 4.1710954974405468e-05, 4.6392080548685044e-05, 4.6194109017960727e-05, 4.5429169404087588e-05, 4.5737655455013737e-05, 5.0104910769732669e-05, 5.0011498387902975e-05, 5.7960281992563978e-05, 8.0640886153560132e-05, 5.8918623835779727e-05, 4.9002675950760022e-05, 6.2263963627628982e-05, 4.5048484025755897e-05, 5.9696183598134667e-05, 4.4397071178536862e-05, 4.5715994929196313e-05, 5.5304877605522051e-05, 5.3557032515527681e-05, 4.3989570258418098e-05, 6.640132050961256e-05, 8.719223114894703e-05, 6.9681496825069189e-05, 5.1783892558887601e-05, 7.5217882113065571e-05, 6.6490152676124126e-05, } };
const TfArray<32, int> quant4_zero = { 32, { 0,0,0,0,0,0,0,0,0,0,0,0,0,0,0,0,0,0,0,0,0,0,0,0,0,0,0,0,0,0,0,0 } };
const TfLiteAffineQuantization quant4 = { (TfLiteFloatArray*)&quant4_scale, (TfLiteIntArray*)&quant4_zero, 0 };
const MODEL_SECTION(EI_MODEL_SECTION) ALIGN(16) int8_t tensor_data5[32*1*1*96] = { 
  /* [0][0][][] */ -27,-46,96,15,82,-7,-70,-79,21,-82,-85,8,53,10,-26,47,-49,-39,-49,-38,-67,-85,2,97,-127,7,71,-35,95,8,-14,-68,72,-48,-73,55,-76,-67,-65,22,48,-101,-84,97,41,-86,92,-17,-5,-50,-24,69,-54,-41,-78,96,14,62,85,-91,-53,78,-53,44,-3,17,61,80,50,88,71,-92,88,-93,41,74,-83,25,-58,29,51,24,79,-52,-48,-60,-77,90,21,69,-2,-86,12,55,25,9, 
  /* [1][0][][] */ -39,18,-44,5,-25,65,28,16,40,-79,-73,98,58,-19,26,50,81,-49,24,94,-43,-4,22,30,-21,11,-20,84,11,15,83,-48,49,84,-3,25,50,40,3,-44,-60,-34,-19,-63,-31,23,-13,-48,-44,-78,94,25,16,72,-67,-30,13,84,32,72,-40,101,-76,-59,-36,35,60,33,88,33,14,13,-80,55,-32,34,63,-22,-39,57,-56,69,-39,-127,21,41,-60,-50,56,35,77,30,66,73,25,-21, 
  /* [2][0][][] */ 45,24,-38,86,-11,-42,71,87,-96,70,-21,114,84,-8,77,-91,-48,-42,26,50,-82,-10,86,28,-71,63,99,10,-52,78,73,82,-51,-10,-71,-82,-59,72,101,-17,-109,-104,10,8,-72,93,-7,-69,53,19,81,-90,-29,61,11,24,-60,86,-67,14,-7,63,-51,59,85,48,42,74,-68,68,11,-54,36,-76,32,22,-42,-5,-2,11,38,-70,-7,-71,1,-127,-23,-23,69,64,-12,18,-33,-60,-32,-69, 
  /* [3][0][][] */ 54,14,26,-8,-39,38,-62,7,53,15,51,-28,66,83,52,21,96,101,-53,60,95,-69,-17,-64,28,-61,-64,84,44,-88,50,20,-17,-15,0,-8,-52,5,13,37,-26,-15,-53,-2,71,44,-46,-18,103,-25,32,26,63,28,72,-63,-63,-79,-76,-35,-49,12,6,56,43,-31,-31,1,-23,-81,18,72,12,-34,52,-13,50,127,79,-31,-46,-58,21,79,48,101,-22,-57,-38,67,-4,-87,54,-83,-66,101, 
  /* [4][0][][] */ 35,120,-16,42,-23,-14,73,10,87,89,-5,20,20,-34,-10,-45,-13,24,-49,58,124,-92,115,9,24,13,48,-36,-41,37,-87,-25,76,106,20,-101,-11,26,-103,71,-28,-19,-81,-67,77,90,-22,77,91,-25,-23,-37,-80,83,-36,19,39,-76,40,5,53,-59,26,-39,-52,46,17,-21,23,-127,-80,-58,-56,70,107,89,78,13,29,-32,5,-46,-87,34,8,115,101,23,-95,10,31,21,14,80,-98,52, 
  /* [5][0][][] */ 80,-78,71,72,36,-86,21,54,64,-94,7,-38,26,78,35,29,45,30,-61,81,19,40,7,-14,-127,-53,-3,-71,41,35,19,-75,-28,5,-52,17,-80,-34,51,21,-81,-79,29,89,-31,16,34,-47,-112,71,27,6,39,22,21,-11,77,46,-56,-23,31,-42,6,-55,-17,86,-19,24,66,10,81,-50,-33,46,-16,-57,8,-26,2,67,90,37,22,49,-66,17,-11,31,50,-106,98,80,-13,22,63,-80, 
  /* [6][0][][] */ 22,-49,103,72,-81,-63,-2,59,-21,-62,2,-70,86,50,105,-124,32,15,-6,99,-89,-122,127,60,-80,-84,-4,-70,-34,-127,57,-80,-84,-115,-43,-117,-11,31,-110,86,79,55,19,-20,-110,92,-65,-56,3,0,-29,-65,60,-33,84,-17,2,-6,-65,105,-103,5,55,-66,-45,69,82,-65,66,-2,-99,-5,58,-74,-96,-55,-92,-103,-54,-40,27,-29,40,-36,-76,-115,-41,-96,75,92,78,19,-69,-77,82,-36, 
  /* [7][0][][] */ 111,77,-28,-37,-72,121,-17,15,113,-7,-80,12,58,-90,51,84,38,-1,6,123,61,34,-15,82,-74,106,42,62,-76,127,-18,39,24,22,67,114,-85,99,19,-48,96,-94,84,89,48,13,79,-111,24,-57,-86,-65,-17,95,25,27,127,-92,6,-51,25,-3,82,-109,-65,-64,80,26,-104,13,67,101,84,20,74,82,-57,65,-105,52,107,-30,-19,-80,88,16,-110,103,94,-15,92,68,-58,-47,22,-65, 
  /* [8][0][][] */ 17,53,-52,-94,37,31,-68,-25,46,38,38,63,-8,-31,-87,-64,-62,109,-36,7,46,-22,89,81,-57,94,24,67,-73,10,-94,119,77,-29,38,-17,101,21,-18,48,104,127,-120,-118,-2,-6,-52,120,56,-59,-81,18,-73,-14,-12,-111,60,86,-75,89,106,25,111,93,-49,-50,-24,95,-84,21,37,-3,60,84,7,30,-36,89,97,68,23,69,-103,-45,34,107,85,-35,39,-6,-78,78,-80,-98,-54,79, 
  /* [9][0][][] */ 6,10,97,33,78,-95,-52,-116,51,57,-28,59,-27,-82,-101,-36,8,7,-89,-81,-8,90,-94,-93,93,-13,-1,28,-14,-49,-66,74,52,-1,23,-27,-89,-1,-46,-14,61,-58,51,-105,62,-6,-65,34,105,-42,-97,-48,69,-61,-85,95,76,-54,-7,-23,-106,103,95,-71,-74,28,85,34,-39,101,94,-95,14,70,-113,-113,-95,-127,-34,90,16,2,95,42,-51,-104,31,-29,85,54,-31,102,100,10,54,-50, 
  /* [10][0][][] */ -56,67,95,-61,-14,100,99,41,-13,20,32,-41,102,71,-25,11,-35,56,-97,-63,-34,25,43,-63,-83,44,-96,-111,-44,92,-80,-79,75,96,115,63,-35,-5,-14,50,-50,54,-127,-21,-110,-63,5,-74,-32,-17,41,-24,67,29,-75,-26,-120,-2,4,-41,2,89,77,42,118,-67,-90,-23,31,-15,-101,-58,87,39,-70,96,-33,60,52,13,74,-3,51,55,-99,7,84,-28,26,-32,-3,-56,-57,-55,-38,-100, 
  /* [11][0][][] */ 109,0,-7,100,103,44,56,37,81,89,-73,114,-4,-83,25,-58,-45,-106,71,35,10,68,12,-114,-120,-89,-15,71,76,18,32,-13,-96,-64,52,31,-46,68,-5,-45,-28,47,-109,32,-36,-34,-90,-92,75,88,96,7,-79,-97,30,32,-78,-43,-88,-104,-57,96,71,19,23,85,-53,32,90,54,-96,-62,46,80,-78,59,-72,43,-44,81,-102,-25,-54,-69,53,-127,3,-12,-97,-40,22,-92,-84,-25,-75,-66, 
  /* [12][0][][] */ 16,51,-35,10,81,10,-30,42,-88,49,-2,31,-28,13,51,-66,-87,-47,-44,-62,18,-8,9,94,-100,-44,99,-81,85,26,-23,103,-70,-54,-34,19,12,-69,3,42,85,-7,-95,-19,-21,-73,-23,96,-67,-111,-56,71,42,10,-77,82,-25,-41,29,68,59,112,-29,50,106,38,-36,103,59,99,38,69,79,83,-6,-4,-28,46,-106,-76,-41,94,44,-29,-31,-21,39,103,-83,-127,87,49,89,-9,32,50, 
  /* [13][0][][] */ 96,-52,99,89,84,102,70,69,46,-93,26,-12,85,65,65,-35,-111,-76,-58,27,57,-23,95,-39,-110,34,14,16,-72,-59,77,39,37,92,-15,38,-59,-23,46,60,-60,28,-54,26,-41,30,-5,-28,3,81,-15,-102,-76,38,86,-66,-43,31,-29,-50,-10,111,-74,17,-37,-51,-73,77,-22,-11,84,8,-76,24,-54,-29,-89,64,64,-52,52,-78,86,-9,-70,-127,77,105,-7,-71,-59,54,98,-46,72,-13, 
  /* [14][0][][] */ -46,-70,72,59,66,-6,-4,-76,-73,-45,69,90,-14,-72,-67,-60,-29,-44,-14,29,-52,1,8,60,-127,-64,-15,15,-88,-93,-52,45,84,-12,-27,-5,75,80,34,-65,-16,-122,27,83,58,-78,47,-68,70,17,62,23,82,32,-21,20,-60,17,32,95,-5,-44,-67,60,-64,-9,53,-78,-69,-56,-67,77,8,48,45,-53,51,-65,21,23,39,-5,-90,-74,-82,-94,-83,85,72,-27,64,-28,53,72,-9,41, 
  /* [15][0][][] */ -4,-10,-19,31,47,-42,37,-52,55,-9,-35,-1,48,1,-56,-60,28,22,-42,11,30,7,44,48,127,36,11,49,10,30,37,-55,0,-4,-37,-7,-32,69,66,-41,30,84,-36,-14,13,-35,-37,-32,26,-33,6,40,-52,-34,-22,-11,39,18,-7,53,-20,-43,43,61,-17,40,-41,-7,-39,-20,25,-38,1,5,30,-51,-5,25,60,45,-45,27,-53,7,-67,42,-45,22,58,60,-65,-30,17,54,-42,70, 
  /* [16][0][][] */ -60,10,65,-52,24,76,-38,22,59,32,-83,33,-20,-38,-47,-42,77,79,56,43,87,56,-23,26,33,42,-63,44,-78,0,21,7,-81,49,36,39,-33,49,-45,-57,33,7,53,56,49,82,55,0,-12,-69,1,103,-38,80,58,22,29,56,66,2,83,65,56,43,31,-2,-27,66,23,56,-24,-11,13,85,42,70,-7,58,-72,-10,5,-67,41,50,9,127,83,7,63,37,-16,69,47,-28,-62,40, 
  /* [17][0][][] */ 10,-120,22,61,-51,-114,-80,-90,13,-95,52,44,74,30,-112,27,16,18,70,85,-104,-30,-16,-47,1,39,-75,10,80,-58,-44,41,-44,-43,11,-6,-52,69,-91,-33,-107,-57,-17,-24,-14,-13,68,-111,44,67,-30,6,-28,45,68,-82,-127,65,-94,-113,8,-87,41,69,-89,-84,28,-105,-109,-5,70,7,3,-122,-73,39,81,-47,13,-65,-1,-35,-78,-102,-123,38,44,-46,-1,51,-101,-107,-19,80,-15,-8, 
  /* [18][0][][] */ -73,107,73,-42,-10,-58,-75,1,-11,52,-70,-53,-28,35,47,-19,24,-2,103,8,92,-33,29,-68,67,-46,-17,85,24,19,-22,44,34,-19,-76,-50,-11,82,-28,39,-46,12,6,-1,-70,23,-16,29,15,-4,64,34,-88,13,31,49,25,20,7,-71,81,67,63,8,-42,-89,-5,77,56,-63,-53,75,-79,118,-48,-60,61,127,25,-33,-26,15,58,-56,89,28,51,71,-59,25,-48,55,61,-36,38,90, 
  /* [19][0][][] */ 15,29,66,30,48,-75,78,81,116,-62,22,-13,-94,35,-55,52,67,-109,87,45,-17,85,-58,6,94,-81,26,-69,-90,-111,-67,36,75,-83,27,1,5,-68,-54,-98,38,-114,-86,3,-86,30,71,-87,-18,25,-50,37,-40,17,2,-12,24,87,-7,-29,48,-56,127,50,-70,-6,-31,-8,-7,44,76,-54,-63,-114,-60,-85,-23,-113,16,100,49,-108,-34,63,-84,-6,4,-9,79,27,-6,54,-36,124,68,-47, 
  /* [20][0][][] */ -11,65,46,67,-65,76,23,30,29,12,-67,-17,-10,72,21,-47,-47,-21,-41,-17,26,-34,-39,-60,97,-41,-91,39,16,1,-35,84,75,35,-10,39,24,-11,-22,-95,-56,27,-68,-76,-5,-47,-56,87,62,-75,-76,45,29,76,44,-3,76,42,84,55,78,-48,-6,-18,-23,-52,-39,15,-63,-65,-42,55,-47,-42,23,22,82,48,88,79,62,11,67,10,52,127,-3,57,26,102,26,39,11,14,-10,27, 
  /* [21][0][][] */ 72,76,85,-87,115,-103,81,40,-22,-76,-42,63,18,31,-32,-80,-101,-18,-1,2,94,-43,56,-63,48,-89,-12,69,31,25,-6,-31,28,15,-81,-94,127,95,-89,-25,-2,-36,25,8,-112,-71,-94,91,-34,-78,16,77,54,97,-103,36,-79,67,-61,127,75,-47,-7,-4,91,26,-10,-64,-94,-6,59,87,35,-33,87,84,-97,-15,46,115,29,92,22,-92,20,-114,58,-76,-100,52,109,-100,-47,-87,89,-30, 
  /* [22][0][][] */ 10,-61,-64,-75,92,-58,126,61,-103,90,-80,-106,107,-123,-117,-59,49,94,-127,-29,72,-88,19,44,105,8,-106,98,-47,-77,-80,-121,46,49,17,15,26,-16,-60,-122,17,-21,25,102,48,-106,83,-15,-79,-105,19,-14,-49,-108,-35,29,-3,-22,-19,-47,118,-68,-119,-94,-68,11,-84,-30,95,124,-28,4,-50,4,75,-52,40,-21,41,104,111,-113,-41,-93,77,51,86,-6,-41,11,-45,60,27,16,-41,118, 
  /* [23][0][][] */ 55,-80,15,53,83,-82,8,-68,16,-61,76,78,23,-82,23,-32,69,-40,-82,83,63,-64,74,-17,-59,-12,76,20,59,49,65,-23,-26,39,19,31,87,-13,-73,12,-87,-48,4,-70,-59,-75,98,13,32,-94,-60,-61,72,-35,-51,77,-72,-6,58,45,-81,-55,-74,-4,35,39,-88,-82,58,1,86,-49,2,-45,-25,-76,34,-4,61,91,-36,-31,17,-127,70,-40,77,-14,-77,-5,88,7,86,-37,-17,49, 
  /* [24][0][][] */ -59,-39,-71,-45,-62,-63,-40,-57,29,98,80,57,102,46,-22,-93,-78,20,29,-40,75,-70,-52,-26,-3,-22,71,58,86,63,14,-35,-1,17,39,31,-20,-83,75,-10,-64,-115,76,27,15,-46,33,48,-84,-54,8,12,67,70,53,-56,-10,76,-4,13,87,21,20,85,-69,94,-34,-66,-67,56,-50,-5,-22,3,86,87,55,-39,-91,-65,-57,-73,-43,-127,-3,1,-24,-73,13,-121,14,-49,-10,34,-59,4, 
  /* [25][0][][] */ -75,-71,-62,4,103,-65,-95,66,3,-106,-28,54,86,1,-96,-27,-70,51,34,-94,48,81,-16,-39,-39,-52,-78,40,82,-72,52,116,97,-99,50,77,121,-66,-2,-5,-95,46,-107,22,90,32,86,27,-115,74,-56,-18,59,-6,-73,25,-33,66,-127,83,121,63,14,52,17,87,-17,-5,-77,19,-22,-102,47,-124,77,15,69,98,-11,22,58,59,-41,19,-76,-100,-113,-89,-35,-100,112,41,-110,-5,-8,-101, 
  /* [26][0][][] */ 35,-60,-11,-1,-59,1,19,-14,-54,-80,75,29,-54,-20,5,3,76,34,-32,-31,29,51,84,1,61,66,-4,47,21,0,-53,4,-22,-33,-56,-63,-36,82,-33,63,-51,127,46,18,-37,63,-42,86,11,55,8,78,14,-41,21,-72,81,41,53,15,9,-74,92,8,77,-12,-25,51,-48,43,62,74,51,-34,-47,34,36,-76,-38,12,-7,57,76,-8,67,47,-11,16,-19,114,13,7,-32,73,36,82, 
  /* [27][0][][] */ 3,24,-29,-41,-46,-33,12,-14,64,50,48,-86,-18,46,37,28,35,36,60,0,-7,0,57,-34,30,55,-75,-1,39,-4,-8,16,46,47,-34,-39,-29,52,-48,27,-9,127,26,28,103,50,-14,87,79,89,51,-9,-29,-35,56,-17,76,-19,33,-29,32,-44,32,66,26,-43,-29,74,19,-31,-36,38,19,65,38,27,56,-17,80,71,71,13,69,75,-4,43,44,67,38,88,-16,-41,19,2,80,115, 
  /* [28][0][][] */ 57,1,54,27,-67,-41,-56,-102,-73,-69,34,26,-51,-53,-3,61,49,52,-56,6,-34,6,-93,-48,-92,51,-78,-29,-47,-54,1,-12,-77,13,47,49,-7,-73,-43,-3,67,34,-62,33,-103,-59,9,19,-12,-33,-75,-41,-60,-8,18,17,34,-11,23,33,-31,-35,-74,3,35,49,-22,52,-48,13,-86,-30,41,10,-7,-73,-100,-48,-127,23,-46,-55,30,-46,36,-117,30,-81,-58,-77,-21,-37,-17,22,-73,-81, 
  /* [29][0][][] */ 45,52,39,-50,-81,-2,-101,5,106,-6,-70,-86,83,-81,-42,-40,-83,98,25,-58,-49,-30,51,-6,5,10,-46,-32,-91,-13,78,5,40,1,-69,-54,-16,90,-10,74,42,92,-46,61,2,97,-56,-17,39,16,33,-68,51,-75,96,33,-67,39,-37,95,-97,70,-58,-49,-61,-63,42,72,73,-85,34,-59,86,72,48,21,95,-53,-18,25,-10,-73,-3,-60,54,127,46,70,-29,91,55,58,-90,18,-15,61, 
  /* [30][0][][] */ 16,10,-42,22,-40,14,17,2,102,16,16,-47,-66,24,38,32,-14,73,84,-26,59,-48,-22,-24,-10,56,-35,77,2,-47,-39,9,-43,-30,-55,-15,56,48,17,48,109,51,-4,70,86,-4,44,75,15,75,56,-22,62,-14,26,51,11,-27,27,-45,-36,-17,41,25,-37,-59,-25,61,-30,43,42,20,-53,127,59,-15,-32,-22,19,-14,31,21,9,70,-47,100,-41,109,77,57,55,9,-23,24,40,18, 
  /* [31][0][][] */ 46,-45,20,59,28,35,-34,-68,-29,-23,-45,-73,57,-81,-34,79,-38,-65,55,34,49,16,-5,58,67,-73,9,33,-47,-52,26,74,5,12,-60,-13,58,5,-43,-75,30,-14,-25,23,4,-38,-47,24,84,33,64,0,-77,-22,-47,9,-80,41,2,78,-13,-11,79,-48,44,69,-29,-49,49,-101,-94,13,-73,15,4,14,-35,-35,49,54,-49,-25,56,87,38,127,-66,15,28,-7,-73,-43,-7,41,-6,14, 
};
const TfArray<4, int> tensor_dimension5 = { 4, { 32,1,1,96 } };
const TfArray<32, float> quant5_scale = { 32, { 0.0021999848540872335, 0.0023929663002490997, 0.0022262297570705414, 0.002638969337567687, 0.0020444903057068586, 0.0023075940553098917, 0.00186463154386729, 0.0017727154772728682, 0.0019716634415090084, 0.0019632496405392885, 0.0019307397305965424, 0.0019438503077253699, 0.0021294585894793272, 0.0021254885941743851, 0.0024633118882775307, 0.0034272377379238605, 0.0025040414184331894, 0.0020826137624680996, 0.0026462185196578503, 0.0019145605619996786, 0.0025370877701789141, 0.0018868754850700498, 0.0019429298117756844, 0.0023504572454839945, 0.0022761737927794456, 0.0018695567268878222, 0.0028220561798661947, 0.0037056696601212025, 0.0029614635277539492, 0.0022008153609931469, 0.0031967598479241133, 0.0028258312959223986, } };
const TfArray<32, int> quant5_zero = { 32, { 0,0,0,0,0,0,0,0,0,0,0,0,0,0,0,0,0,0,0,0,0,0,0,0,0,0,0,0,0,0,0,0 } };
const TfLiteAffineQuantization quant5 = { (TfLiteFloatArray*)&quant5_scale, (TfLiteIntArray*)&quant5_zero, 0 };
const MODEL_SECTION(EI_MODEL_SECTION) ALIGN(16) int32_t tensor_data6[96] = { 1798, 60, 3725, 4253, 4112, -1499, 3128, -1108, -2405, -686, 5000, -1957, 4105, 5541, 2303, 1715, -486, -106, -1077, 3807, 2292, -981, 2403, -808, -503, 3369, 1221, 2113, 6006, 1721, 3909, 910, 1154, 4215, 4507, 3163, -407, 3039, 2028, -3765, -228, 1762, -66, 1630, -842, 410, -1362, 1048, -6706, 1848, 1186, -3761, 5485, -908, 1804, 1337, 1264, 2396, -606, -1880, 178, 1451, 1242, 3709, 5229, 2652, 2305, 4477, 3579, -588, 3456, 5732, 3661, -977, 4356, 7696, 625, -4021, 951, 806, 7773, 1424, -241, -1482, 981, 1156, 1440, -1693, 2983, -27, 3166, 1281, 25, -2639, -5, 2084, };
const TfArray<1, int> tensor_dimension6 = { 1, { 96 } };
const TfArray<96, float> quant6_scale = { 96, { 0.00011783273657783866, 0.00029112567426636815, 0.00014773396833334118, 0.00017710443353280425, 0.0001529031724203378, 0.00028364078025333583, 0.00018335823551751673, 0.00024834502255544066, 0.00015934876864776015, 0.00021857612591702491, 0.00013209694589022547, 0.00022076265304349363, 0.000133550725877285, 0.00011605075269471854, 0.00014374386228155345, 0.00021446624305099249, 0.00030807207804173231, 0.00020069512538611889, 0.00023077886726241559, 0.00015458889538422227, 0.00021340145030990243, 0.00018526463827583939, 0.00015457272820640355, 0.0001584675774211064, 0.00026852113660424948, 0.00019204038835596293, 0.00024321214004885405, 0.00017953013593796641, 0.00011932245979551226, 0.00023131803027354181, 0.00013416218280326575, 0.00026568255270831287, 0.00024995999410748482, 0.00014642919995822012, 0.00012226708349771798, 0.00014907798322383314, 0.00018953140533994883, 0.00016930335550568998, 0.00016473968571517617, 0.00013154055341146886, 0.00019579939544200897, 0.00016781089652795345, 0.00025028499658219516, 0.00017288376693613827, 0.00021433994697872549, 0.00016534391033928841, 0.00017274182755500078, 0.00019470030383672565, 0.00010645698057487607, 0.00015392752538900822, 0.00020805251551792026, 0.00012820046686101705, 0.00013484395458362997, 0.00020573899382725358, 0.00019505831005517393, 0.00017560595006216317, 0.00018485495820641518, 0.00015818970859982073, 0.000237994798226282, 0.00016028835671022534, 0.00023455670452676713, 0.00018130596436094493, 0.00020246034546289593, 0.0001801900943974033, 0.0001313084940193221, 0.00017819668573793024, 0.00014545938756782562, 0.00017039338126778603, 0.00017863516404759139, 0.00021223974181339145, 0.0001400445617036894, 0.00012325267016422004, 0.00012514412810560316, 0.00021925968758296221, 0.00016770178626757115, 0.00010896484309341758, 0.00016960418724920601, 0.00015610794071108103, 0.00017052737530320883, 0.00022536006872542202, 0.00011184944014530629, 0.00019167532445862889, 0.00020571472123265266, 0.00021070554794277996, 0.00019963513477705419, 0.00023423653328791261, 0.00018296785128768533, 0.00019250580226071179, 0.00020299537573009729, 0.00025281979469582438, 0.00018727591668721288, 0.00016003810742404312, 0.00016389215306844562, 0.00017323720385320485, 0.0002389409055467695, 0.00018780273967422545, } };
const TfArray<96, int> quant6_zero = { 96, { 0,0,0,0,0,0,0,0,0,0,0,0,0,0,0,0,0,0,0,0,0,0,0,0,0,0,0,0,0,0,0,0,0,0,0,0,0,0,0,0,0,0,0,0,0,0,0,0,0,0,0,0,0,0,0,0,0,0,0,0,0,0,0,0,0,0,0,0,0,0,0,0,0,0,0,0,0,0,0,0,0,0,0,0,0,0,0,0,0,0,0,0,0,0,0,0 } };
const TfLiteAffineQuantization quant6 = { (TfLiteFloatArray*)&quant6_scale, (TfLiteIntArray*)&quant6_zero, 0 };
const MODEL_SECTION(EI_MODEL_SECTION) ALIGN(16) int8_t tensor_data7[96*1*1*16] = { 
  /* [0][0][][] */ -10,127,-95,33,53,-46,101,94,-95,4,45,-108,100,122,-76,28, 
  /* [1][0][][] */ -29,-4,-68,-15,15,62,50,-127,33,-45,-13,-48,-3,-55,-37,-9, 
  /* [2][0][][] */ -19,-27,31,88,34,56,-109,127,-22,6,73,-54,-19,-79,-45,64, 
  /* [3][0][][] */ 83,-91,74,-10,-12,-34,-28,127,-34,50,71,39,6,38,-3,24, 
  /* [4][0][][] */ -41,-26,1,45,-72,17,-34,-96,-19,-4,45,-6,38,47,75,127, 
  /* [5][0][][] */ 127,24,-24,-14,-60,16,32,55,36,-5,38,79,119,13,-74,-20, 
  /* [6][0][][] */ 11,-42,-38,-49,-88,-6,-26,-49,-55,-57,-28,36,88,45,127,2, 
  /* [7][0][][] */ -39,47,-28,-77,-9,-47,-71,7,-84,54,-82,-55,-127,-43,9,68, 
  /* [8][0][][] */ 52,47,109,2,91,42,79,12,80,-25,48,22,-127,-40,-95,10, 
  /* [9][0][][] */ -38,78,40,-61,-29,-22,25,-25,-24,47,-56,16,56,127,43,23, 
  /* [10][0][][] */ 72,36,-66,72,-62,-25,44,-39,-86,-28,-28,-111,-123,-74,25,127, 
  /* [11][0][][] */ 55,4,74,6,-11,-41,4,114,-84,16,-23,-3,-15,-32,80,127, 
  /* [12][0][][] */ -43,-29,15,-3,14,-2,100,49,-65,18,19,-5,-9,59,-43,127, 
  /* [13][0][][] */ -15,23,7,84,68,74,104,112,-7,127,-94,-43,17,55,-92,-43, 
  /* [14][0][][] */ -127,118,4,-1,-21,0,55,19,-47,40,124,-10,-82,-1,-40,58, 
  /* [15][0][][] */ -4,-11,-127,-34,71,-53,-72,-45,-11,-16,-22,-63,-10,-77,-40,29, 
  /* [16][0][][] */ 114,-26,-10,-11,33,-32,43,-32,-26,-1,127,41,24,12,-37,19, 
  /* [17][0][][] */ 0,34,-22,-93,13,-76,127,-108,-6,-29,-28,30,35,82,36,40, 
  /* [18][0][][] */ 9,104,-18,-27,48,-76,-10,-63,-25,127,-26,13,-21,45,30,-27, 
  /* [19][0][][] */ -56,-127,119,-85,41,-96,6,-28,39,18,80,109,37,-27,59,-20, 
  /* [20][0][][] */ -24,97,65,-2,14,1,12,-31,63,2,102,3,-127,-45,-71,-23, 
  /* [21][0][][] */ -57,23,14,25,73,35,44,30,-127,58,-21,3,-14,28,-69,-16, 
  /* [22][0][][] */ 10,-100,60,31,22,-127,125,20,9,-52,-27,-91,46,-106,-56,-37, 
  /* [23][0][][] */ -60,-112,49,78,44,-6,10,-34,18,-32,83,19,4,74,68,127, 
  /* [24][0][][] */ -8,9,30,76,22,11,-46,-127,48,27,-39,-2,24,-7,4,-25, 
  /* [25][0][][] */ -7,53,28,-58,-31,-22,7,-51,-5,52,-73,-8,34,127,51,-19, 
  /* [26][0][][] */ -60,62,3,22,11,-63,-8,-18,7,19,24,56,12,4,-72,127, 
  /* [27][0][][] */ -9,-127,-67,-12,-69,109,-9,-74,42,-41,42,-32,46,-80,-103,-54, 
  /* [28][0][][] */ -39,-4,42,83,22,8,-48,-122,-127,48,115,-13,77,8,-52,-18, 
  /* [29][0][][] */ -127,120,-37,-42,-38,26,-126,-72,-45,-56,-5,-16,3,-61,-123,72, 
  /* [30][0][][] */ 49,85,-35,82,-108,-81,-66,6,-60,7,17,-127,109,47,-35,119, 
  /* [31][0][][] */ 127,25,-60,-21,-48,36,124,43,-32,-4,49,53,49,11,-22,-13, 
  /* [32][0][][] */ -22,-19,127,-9,-17,76,86,8,-1,-20,-20,24,5,58,74,33, 
  /* [33][0][][] */ 3,26,-55,-50,-18,29,127,12,10,-36,11,-48,53,95,-15,26, 
  /* [34][0][][] */ -73,-25,81,-1,24,-47,92,-26,-127,24,36,-56,64,85,-74,-26, 
  /* [35][0][][] */ -9,10,-46,17,-89,110,-39,-2,-35,127,13,77,-48,68,0,58, 
  /* [36][0][][] */ -12,-82,127,-60,-54,8,-27,-7,15,11,-47,87,3,-95,-45,51, 
  /* [37][0][][] */ 77,0,85,-45,116,-94,-45,4,-59,123,-96,-7,-127,-44,88,-41, 
  /* [38][0][][] */ 54,68,7,-82,-47,-57,-92,62,-83,64,-105,-86,-73,-104,-127,68, 
  /* [39][0][][] */ -79,41,-77,-20,-74,-88,101,12,-127,-41,15,93,15,-13,17,18, 
  /* [40][0][][] */ 127,15,4,-99,-38,27,15,-44,-35,-47,-46,-67,41,80,58,18, 
  /* [41][0][][] */ 85,-70,-44,-19,-21,5,-74,-31,75,10,-25,-71,127,-76,46,-59, 
  /* [42][0][][] */ -13,-89,-40,127,3,-96,-99,10,9,1,4,48,-101,69,-54,-2, 
  /* [43][0][][] */ -71,-31,-45,-113,-49,-3,-23,74,44,-127,-50,47,-22,-64,-11,81, 
  /* [44][0][][] */ -36,67,37,-42,-33,-24,80,103,127,-63,48,99,109,39,7,-33, 
  /* [45][0][][] */ 40,82,-66,71,127,-104,-28,-78,100,-86,56,-49,-28,-5,-54,44, 
  /* [46][0][][] */ -35,-47,15,-4,90,-32,18,32,-13,127,-9,-101,25,58,-50,87, 
  /* [47][0][][] */ 85,-40,-43,-11,65,-25,-41,-66,10,127,-42,31,-8,-114,-67,-2, 
  /* [48][0][][] */ 7,24,-52,-97,7,-67,127,-114,5,3,-22,48,61,70,27,38, 
  /* [49][0][][] */ -52,111,-91,36,51,-85,81,55,-30,9,44,-77,-24,56,127,-98, 
  /* [50][0][][] */ 12,50,-17,0,-127,-11,-65,-53,54,60,30,29,-43,-44,6,35, 
  /* [51][0][][] */ 127,-40,-45,-14,-54,81,-94,-38,51,-19,-50,53,-21,-74,4,39, 
  /* [52][0][][] */ -34,-63,61,74,-50,-91,-111,17,-62,-40,-15,-71,17,-52,-7,127, 
  /* [53][0][][] */ 30,92,49,-97,-23,101,72,-19,-4,-14,-15,-15,58,-127,20,56, 
  /* [54][0][][] */ 35,127,14,-17,7,-90,-89,40,19,-24,-58,121,79,87,36,48, 
  /* [55][0][][] */ -43,-19,66,26,39,-44,83,93,-89,0,31,25,127,32,-12,14, 
  /* [56][0][][] */ 127,13,40,25,-52,111,-62,-72,-15,44,-96,7,-21,80,12,23, 
  /* [57][0][][] */ -40,-34,-47,-34,-80,-76,57,-10,-127,-22,64,49,19,37,-27,71, 
  /* [58][0][][] */ 42,-63,61,30,2,-56,-30,8,24,-7,-127,-35,33,-27,-27,47, 
  /* [59][0][][] */ 73,26,-84,85,-8,37,87,-17,-69,-36,23,-127,-94,-63,28,117, 
  /* [60][0][][] */ 5,30,-19,15,-6,-14,-28,-6,-20,-69,53,127,-49,-116,-34,-15, 
  /* [61][0][][] */ -37,10,72,-70,-57,39,-4,110,-29,-69,60,48,76,-2,-5,127, 
  /* [62][0][][] */ 65,29,13,-127,-17,23,16,-34,-8,62,-55,69,39,-31,-85,-107, 
  /* [63][0][][] */ 0,-21,7,-14,-75,-70,-57,26,-75,-15,-30,-19,127,-5,51,-3, 
  /* [64][0][][] */ 22,-5,-2,63,-95,-33,-23,-73,42,121,50,-8,41,-45,-61,127, 
  /* [65][0][][] */ -37,-1,-5,-13,-87,75,4,-20,39,-104,114,-49,80,66,-127,83, 
  /* [66][0][][] */ -110,86,-77,-75,48,-27,-107,-80,-93,112,94,9,-127,-41,37,61, 
  /* [67][0][][] */ 8,-9,-127,-102,70,68,5,-18,-21,-4,34,-20,15,26,14,23, 
  /* [68][0][][] */ 51,16,-5,-40,-59,24,10,38,-72,61,127,-20,-10,-41,-110,21, 
  /* [69][0][][] */ 49,-96,38,-31,21,-71,-31,127,-7,67,86,55,-3,68,-44,11, 
  /* [70][0][][] */ 49,8,127,70,117,-11,117,33,34,62,-62,32,-96,85,-109,58, 
  /* [71][0][][] */ 15,35,86,-76,-127,-94,18,-2,-9,-17,12,-107,-87,-1,32,12, 
  /* [72][0][][] */ -53,-83,17,-106,74,-12,4,54,-80,17,-97,-25,55,113,-59,127, 
  /* [73][0][][] */ 16,20,71,-17,127,-97,-49,17,-49,89,-87,34,-108,-58,101,-2, 
  /* [74][0][][] */ -97,5,-122,-75,79,-48,-20,17,-61,-6,-127,-14,-38,-67,0,53, 
  /* [75][0][][] */ 82,-13,49,-44,15,13,-127,-16,-8,-108,68,-3,3,-17,-6,-11, 
  /* [76][0][][] */ 14,-43,-40,92,44,89,124,-65,92,-127,59,92,20,-69,-32,22, 
  /* [77][0][][] */ -20,-15,127,-48,31,-45,-36,-124,25,3,17,93,32,22,17,-23, 
  /* [78][0][][] */ -65,-6,16,-37,24,-62,76,-12,33,-34,29,-69,-127,-108,-109,-95, 
  /* [79][0][][] */ -73,-59,-5,10,127,22,-23,13,17,27,-19,48,-13,-80,-46,-14, 
  /* [80][0][][] */ 6,-76,40,127,-24,-21,-84,51,11,27,15,25,-64,-20,19,28, 
  /* [81][0][][] */ 108,56,-7,100,-7,18,2,127,17,21,118,46,125,24,66,-9, 
  /* [82][0][][] */ -53,6,18,-25,24,-127,-107,-80,15,85,-54,-39,-40,68,-49,-46, 
  /* [83][0][][] */ 90,-32,83,-2,-53,-5,-127,8,23,-77,25,-46,-11,-5,26,-9, 
  /* [84][0][][] */ 30,-59,-115,11,127,46,55,19,-101,8,-117,-41,31,-46,-50,-5, 
  /* [85][0][][] */ -16,94,13,-50,62,-4,62,-112,127,-35,65,-6,111,-78,1,-13, 
  /* [86][0][][] */ 127,-20,105,43,6,-52,69,30,-52,-69,-108,-42,19,24,-47,-3, 
  /* [87][0][][] */ -8,18,23,-89,78,-27,-61,21,40,-29,71,-36,-97,-127,-3,10, 
  /* [88][0][][] */ -54,-30,37,-3,9,21,-72,-54,5,17,-87,-127,-44,-44,-9,-29, 
  /* [89][0][][] */ -80,18,19,-57,14,8,-127,35,85,37,-75,-19,-6,-63,-22,-31, 
  /* [90][0][][] */ -14,-21,-23,-71,127,10,-65,45,37,52,31,-8,38,23,-57,-7, 
  /* [91][0][][] */ -38,-52,19,66,-58,7,18,72,-32,-53,13,-72,-9,82,20,127, 
  /* [92][0][][] */ -34,73,4,-4,-21,67,-109,66,-48,-3,86,10,-36,127,50,34, 
  /* [93][0][][] */ 5,82,-32,-86,71,78,-83,2,61,53,43,72,-127,11,-44,54, 
  /* [94][0][][] */ 21,60,108,33,-127,-27,6,-4,20,-12,29,-9,-77,-25,27,-25, 
  /* [95][0][][] */ -32,57,27,45,111,18,-56,127,29,33,-126,124,-17,26,88,-81, 
};
const TfArray<4, int> tensor_dimension7 = { 4, { 96,1,1,16 } };
const TfArray<96, float> quant7_scale = { 96, { 0.0013293139636516571, 0.0032842946238815784, 0.001666640629991889, 0.0019979795906692743, 0.0017249564407393336, 0.0031998548656702042, 0.0020685310009866953, 0.0028016706928610802, 0.0017976714298129082, 0.0024658369366079569, 0.0014902336988598108, 0.0024905039463192225, 0.0015066342893987894, 0.0013092107838019729, 0.0016216268995776772, 0.0024194717407226562, 0.0034754732623696327, 0.0022641147952526808, 0.0026035003829747438, 0.0017439735820516944, 0.0024074595421552658, 0.0020900378003716469, 0.0017437911592423916, 0.0017877304926514626, 0.0030292847659438848, 0.0021664774976670742, 0.0027437647804617882, 0.0020253448747098446, 0.0013461201451718807, 0.0026095828507095575, 0.0015135324792936444, 0.0029972617048770189, 0.0028198896907269955, 0.0016519211931154132, 0.0013793394900858402, 0.0016818030271679163, 0.0021381727419793606, 0.0019099727505818009, 0.0018584884237498045, 0.001483956933952868, 0.0022088843397796154, 0.001893135835416615, 0.0028235563077032566, 0.0019503647927194834, 0.0024180470500141382, 0.0018653047736734152, 0.0019487633835524321, 0.0021964849438518286, 0.0012009799247607589, 0.0017365125240758061, 0.0023471161257475615, 0.001446276088245213, 0.0015212236903607845, 0.0023210165090858936, 0.0022005238570272923, 0.0019810746889561415, 0.0020854161120951176, 0.0017845957772806287, 0.0026849058922380209, 0.0018082713941112161, 0.0026461195666342974, 0.0020453785546123981, 0.0022840288002043962, 0.0020327901002019644, 0.001481338869780302, 0.0020103016868233681, 0.0016409802483394742, 0.0019222698174417019, 0.0020152484066784382, 0.0023943537380546331, 0.0015798936365172267, 0.0013904582010582089, 0.0014117964310571551, 0.002473548287525773, 0.001891904859803617, 0.0012292721075937152, 0.0019133666064590216, 0.0017611104995012283, 0.0019237813539803028, 0.0025423690676689148, 0.0012618142645806074, 0.0021623591892421246, 0.0023207427002489567, 0.0023770460393279791, 0.002252156613394618, 0.0026425076648592949, 0.0020641270093619823, 0.0021717280615121126, 0.0022900647018104792, 0.0028521521016955376, 0.0021127278450876474, 0.0018054482061415911, 0.0018489271169528365, 0.0019543520174920559, 0.0026955793146044016, 0.0021186710800975561, } };
const TfArray<96, int> quant7_zero = { 96, { 0,0,0,0,0,0,0,0,0,0,0,0,0,0,0,0,0,0,0,0,0,0,0,0,0,0,0,0,0,0,0,0,0,0,0,0,0,0,0,0,0,0,0,0,0,0,0,0,0,0,0,0,0,0,0,0,0,0,0,0,0,0,0,0,0,0,0,0,0,0,0,0,0,0,0,0,0,0,0,0,0,0,0,0,0,0,0,0,0,0,0,0,0,0,0,0 } };
const TfLiteAffineQuantization quant7 = { (TfLiteFloatArray*)&quant7_scale, (TfLiteIntArray*)&quant7_zero, 0 };
const MODEL_SECTION(EI_MODEL_SECTION) ALIGN(16) int32_t tensor_data8[16] = { 7632, 14865, 896, -2950, -1727, 1229, 1445, 6617, 16365, -864, -7703, 5149, -9045, 8830, 8057, 14226, };
const TfArray<1, int> tensor_dimension8 = { 1, { 16 } };
const TfArray<16, float> quant8_scale = { 16, { 5.5383934522978961e-05, 7.4580369982868433e-05, 6.5682936110533774e-05, 5.9761481679743156e-05, 7.8129945904947817e-05, 6.2317281845025718e-05, 5.8510489907348529e-05, 6.1546168581116945e-05, 0.00010710334754548967, 7.672939682379365e-05, 8.9491280959919095e-05, 5.9867896197829396e-05, 9.0041656221728772e-05, 7.3790019087027758e-05, 8.2275073509663343e-05, 0.00010576793283689767, } };
const TfArray<16, int> quant8_zero = { 16, { 0,0,0,0,0,0,0,0,0,0,0,0,0,0,0,0 } };
const TfLiteAffineQuantization quant8 = { (TfLiteFloatArray*)&quant8_scale, (TfLiteIntArray*)&quant8_zero, 0 };
const MODEL_SECTION(EI_MODEL_SECTION) ALIGN(16) int8_t tensor_data9[16*1*1*96] = { 
  /* [0][0][][] */ -88,35,35,4,-57,-24,-69,-8,-48,16,26,-33,43,53,15,-30,34,7,80,8,14,-63,127,75,51,33,26,24,-56,-92,-77,8,-36,-36,26,45,-7,22,-19,17,1,5,-85,-3,-95,-28,2,88,-14,29,-27,-19,13,23,23,-47,-78,32,-37,69,34,25,19,4,-17,-72,-23,20,-60,-45,12,-21,4,-3,-80,-41,-48,-1,-56,9,-47,60,68,-51,14,59,37,61,43,-7,18,-17,-33,-44,-70,4, 
  /* [1][0][][] */ 40,24,-13,-37,-40,-21,-12,31,-23,20,57,-60,21,-6,-74,-27,12,16,-67,22,-10,-94,29,50,-4,-56,4,-47,62,-83,106,-61,47,16,-23,57,7,68,-33,-69,22,23,-8,-32,-15,47,-127,-37,-37,-49,-2,-31,53,-42,-29,50,23,4,-45,-13,3,26,-3,-83,-13,-38,-47,-18,15,9,-73,-18,-47,-18,-7,-49,24,31,14,-81,-15,-29,-91,-11,41,-13,-11,37,-63,-7,-40,47,20,45,-46,35, 
  /* [2][0][][] */ 95,-45,29,21,12,-85,69,-2,-8,-10,-37,17,-104,-30,21,-45,-107,-42,-47,28,16,-54,-49,-14,-17,-95,-6,-16,-38,34,-75,111,-63,127,-33,4,-10,-39,6,14,-109,61,86,32,-51,9,4,-28,8,1,-41,-41,45,-30,-39,63,17,-26,44,15,22,30,-38,10,53,6,-13,-7,33,38,-23,11,42,46,73,36,34,-60,62,55,74,-10,-18,25,-61,12,8,53,-6,-8,-23,43,-36,47,-14,27, 
  /* [3][0][][] */ -18,12,20,-6,-15,4,20,-50,-51,68,38,60,32,-11,-11,36,-11,-39,47,19,20,127,-10,-67,-20,4,-28,7,73,-40,66,21,-30,43,-7,-39,14,44,57,11,-78,-15,-52,29,3,24,31,6,-12,-54,-14,-22,12,-90,-12,-33,16,87,13,18,-1,0,-42,12,21,31,-48,15,-15,-9,18,-71,-21,-37,36,-18,20,-3,-30,-12,-40,7,-35,7,-26,-41,23,-40,16,22,14,-29,70,39,-47,50, 
  /* [4][0][][] */ 24,1,-70,20,48,24,-60,7,-35,85,115,-29,5,5,-15,-47,32,2,-45,43,11,-66,72,106,-58,29,-127,21,-53,-51,24,8,-66,-54,24,78,7,44,-18,19,-29,-36,60,-34,-33,7,-35,73,-31,66,32,21,58,8,-75,13,75,-10,-24,-29,28,-18,37,10,-38,10,-11,18,-55,51,-55,47,34,-70,-29,-56,30,-66,-27,5,-44,85,-81,12,-20,35,24,-52,59,27,41,6,-66,-30,36,19, 
  /* [5][0][][] */ -97,28,91,-15,41,-15,55,-55,-2,38,-8,15,71,-20,-19,-82,-2,-31,60,43,-127,-11,-119,18,-58,1,36,-30,42,-97,-22,73,82,115,-2,41,-12,23,61,-31,-17,123,86,-54,36,78,38,-1,10,34,-47,13,-17,-28,40,-68,45,5,-57,-35,83,104,-45,-34,116,-92,-84,-67,-48,-3,-61,-11,-28,21,-19,-35,-4,-27,-34,-32,122,-15,16,-104,-103,40,62,-13,-22,39,42,22,3,26,-3,90, 
  /* [6][0][][] */ 30,-22,-101,22,-9,-121,88,86,-53,54,-12,40,-127,-68,33,41,14,-38,5,5,-27,-18,-39,-29,-19,51,75,47,26,12,91,-80,27,15,18,-51,15,-10,11,71,33,-11,-53,-43,-20,-46,-68,39,44,-96,16,44,64,16,-15,-74,77,47,18,-43,-126,20,-82,9,59,41,1,56,33,29,-38,-47,-35,14,62,43,82,-41,48,-63,-30,-55,-89,63,36,-43,4,23,-24,61,51,23,-35,19,-7,111, 
  /* [7][0][][] */ 22,82,-22,-58,-37,-12,49,-15,-60,44,-65,-23,-57,20,24,-18,-64,-49,-33,56,2,127,-10,3,-3,-7,14,29,37,26,58,-47,62,28,-33,-8,14,-11,40,51,-69,-38,35,-35,35,-30,74,-42,22,-69,-101,-21,-55,-14,-6,-10,14,-16,-96,31,14,113,13,-30,-38,14,-64,27,-44,-40,-101,45,11,64,-9,36,-72,46,12,-81,-46,-50,61,-70,36,-40,-20,-16,-30,60,-97,31,51,-21,-38,22, 
  /* [8][0][][] */ -11,83,-75,54,-14,-22,-73,36,-94,-22,22,-5,-16,43,8,93,25,-37,2,18,31,-13,18,3,-28,86,19,21,-6,-7,-28,-23,-23,-52,-25,-54,-61,28,14,-16,1,-31,26,-9,-60,-36,0,-2,-6,-10,54,62,16,-3,-64,98,-14,48,-26,-54,-64,7,33,41,-19,-72,-20,-21,-43,27,-6,3,-23,-44,-127,-16,-41,25,-77,-42,-24,-6,-60,-28,7,21,35,36,21,73,-48,-1,-96,-121,19,-57, 
  /* [9][0][][] */ -12,25,-59,43,-40,-23,65,53,-10,42,-33,94,-34,-19,36,114,5,14,57,-10,16,6,36,-127,-54,-10,9,-6,3,-25,33,69,-26,4,3,-118,26,-32,-7,-19,-31,32,35,-6,-14,0,13,-13,10,81,12,0,-64,-85,-10,-10,-5,-32,69,5,-42,55,-62,-31,62,-21,-15,12,-70,14,67,45,-12,85,-2,-17,-30,46,-46,-21,48,-37,87,1,30,-40,-13,-35,-63,8,-2,0,68,26,-44,-16, 
  /* [10][0][][] */ 69,-5,-14,-21,-38,-25,68,-6,9,-27,-42,7,-97,-23,16,-6,-72,-24,18,19,50,36,3,-9,-34,51,21,-5,-46,-69,-38,-18,61,-30,42,-10,84,-61,82,127,21,-62,22,10,-7,-83,-2,43,18,69,-64,-29,-24,15,16,38,0,-62,80,60,1,45,-55,-12,-14,-42,3,56,19,-33,-10,27,101,27,40,-84,22,-47,63,-5,-51,26,42,19,-38,-20,-5,16,-38,-20,9,40,39,69,-24,17, 
  /* [11][0][][] */ -64,-21,33,-59,15,-34,8,-51,42,-34,10,-3,-7,8,-12,24,-64,15,57,7,-66,9,-72,-79,39,37,-48,65,27,-34,39,-20,8,7,13,-11,-68,34,-95,-23,-40,42,-18,106,-10,16,2,-52,6,-28,-39,-52,61,-4,72,-76,-35,-76,0,-67,-22,-33,-25,-110,12,-58,53,91,113,9,60,5,-51,-19,77,-39,84,58,20,45,14,-25,-12,127,101,-25,19,-30,-75,-48,-6,13,52,28,43,88, 
  /* [12][0][][] */ 55,-32,2,-45,32,72,5,17,64,53,-25,60,-30,34,20,9,-72,53,1,48,103,0,59,-58,44,11,-71,-62,-25,72,-24,-4,29,-7,-3,-53,66,4,-34,-18,27,-31,60,60,-18,28,14,-17,-69,16,8,23,-18,-23,8,7,-55,22,3,34,38,-76,4,-82,-23,95,-30,-26,-3,-36,59,12,-17,-5,17,28,-6,24,-60,-16,-31,30,127,6,-9,43,-32,-78,49,-13,-83,57,69,21,-18,-83, 
  /* [13][0][][] */ -6,10,13,-51,-19,-20,14,-30,34,-43,-45,-62,30,-102,-30,-63,-44,-35,-66,-5,-91,7,41,89,-36,0,86,15,23,-42,32,40,3,9,-127,107,-3,-56,33,-25,92,4,25,64,12,-74,73,-34,33,-10,-54,36,19,-5,-36,57,28,-88,-9,-6,47,36,-31,-86,-26,82,-40,20,-53,-31,-58,26,-87,23,-53,-76,-95,26,63,83,-27,50,60,-84,41,15,13,-15,-49,-43,-26,30,-44,6,-12,0, 
  /* [14][0][][] */ -7,25,-112,-6,92,84,-100,2,17,-51,108,-27,52,-12,-53,-72,-47,16,40,127,2,-44,5,4,-14,35,-21,63,28,-8,-19,12,68,-5,-33,19,-46,48,72,-6,50,15,10,-11,-42,-42,55,-43,32,-9,-7,-37,57,22,-43,23,32,81,-110,-20,-28,-74,-22,-117,22,-57,-41,-24,-82,49,-25,28,1,-28,-42,-25,43,-5,-69,-40,41,-1,-26,-14,3,60,-2,5,-30,63,82,19,-11,-57,-43,-72, 
  /* [15][0][][] */ -46,-42,62,-69,0,-32,-29,-97,11,15,-30,85,-48,-34,43,84,-127,-25,4,-63,34,-31,-24,-81,55,-35,29,-55,-67,-106,-88,7,-29,49,49,-98,19,-28,48,-2,-24,-20,40,0,20,8,61,74,-56,-20,6,-38,-56,29,-2,-61,-112,-41,93,35,1,21,-89,33,-76,8,-26,24,45,-85,78,-28,62,-40,-3,-42,-5,6,47,1,-21,71,62,6,-8,-32,-118,-15,-29,-66,-85,27,30,-11,-22,66, 
};
const TfArray<4, int> tensor_dimension9 = { 4, { 16,1,1,96 } };
const TfArray<16, float> quant9_scale = { 16, { 0.0023538172245025635, 0.0031696655787527561, 0.0027915248647332191, 0.0025398628786206245, 0.0033205226063728333, 0.0026484844274818897, 0.0024866957683116198, 0.0026157121174037457, 0.0045518921688199043, 0.0032609992194920778, 0.0038033793680369854, 0.002544385613873601, 0.0038267704658210278, 0.0031360758002847433, 0.0034966906532645226, 0.0044951369054615498, } };
const TfArray<16, int> quant9_zero = { 16, { 0,0,0,0,0,0,0,0,0,0,0,0,0,0,0,0 } };
const TfLiteAffineQuantization quant9 = { (TfLiteFloatArray*)&quant9_scale, (TfLiteIntArray*)&quant9_zero, 0 };
const MODEL_SECTION(EI_MODEL_SECTION) ALIGN(16) int32_t tensor_data10[96] = { 450, -96, -333, -3259, -108, 2636, -1870, -1639, 864, -1460, 11809, -3271, -1483, 6091, 6423, -4379, 17763, -582, -3511, -193, -376, -11380, -1082, 191, -103, -5532, -3667, -3282, -2862, -5906, -3142, -1440, 13327, -3456, -2477, -278, -4597, -2968, -1579, 9454, -200, -48, 1364, -3924, 8830, 10929, -2570, 14101, -214, 10945, 11315, -2174, -224, 1431, 902, 15228, -547, -814, 13385, 2544, 6144, 14969, 9868, -10603, -228, -794, -2118, 1572, -5289, -1353, -1167, 4559, 10778, 9, -1225, 10487, -526, -250, 7631, -3808, 167, 12227, 4536, 2083, 10994, -1389, -5970, -3862, 1090, -7832, 18396, -373, -4651, -336, -2306, -6262, };
const TfArray<1, int> tensor_dimension10 = { 1, { 96 } };
const TfArray<96, float> quant10_scale = { 96, { 0.00026831612922251225, 0.00022323486336972564, 0.00015519442968070507, 0.00026600353885442019, 0.00026359868934378028, 0.00023091251205187291, 0.00033462699502706528, 0.0002316081227036193, 0.0003324031422380358, 0.00016390638484153897, 0.00013148087600711733, 0.00023907140712253749, 0.00023286737268790603, 0.00017422180098947138, 0.00015270155563484877, 0.00017357125761918724, 0.00010873661085497588, 0.00016664060240145773, 0.00020193254749756306, 0.0001197066594613716, 0.00012994918506592512, 0.00017568135808687657, 0.00025403412291780114, 0.00017445100820623338, 0.0006985481595620513, 0.00014632882084697485, 0.00023107991728466004, 0.00012783535930793732, 0.00022476031153928488, 0.00011848135909531265, 0.00030758985667489469, 0.00018223638471681625, 0.0001223253202624619, 0.00011108967009931803, 0.00026685005286708474, 0.00025650954921729863, 0.00018864123558159918, 0.00018658193584997207, 0.00023120372497942299, 0.00013822974869981408, 0.00019794913532678038, 0.00017549707263242453, 0.00024710482102818787, 0.00014477602962870151, 0.00015210699348244816, 0.00010946108523057774, 0.00027086745831184089, 8.5201718320604414e-05, 0.00021725172700826079, 9.1976609837729484e-05, 0.00014194082177709788, 0.00015728028665762395, 0.00019622199761215597, 0.00013296958059072495, 0.00025712192291393876, 0.00010501506767468527, 0.00019811683159787208, 0.00020219101861584932, 0.00015097016876097769, 0.00013509704149328172, 0.00019943361985497177, 0.00012081965542165563, 0.00012546520156320184, 9.2975031293462962e-05, 0.00016161189705599099, 0.00032688153441995382, 0.00026544518186710775, 0.00024558065342716873, 0.0002685856306925416, 0.00022174714831635356, 0.00019833311671391129, 0.00012217671610414982, 0.00011148924386361614, 0.00022734649246558547, 0.00032533312332816422, 0.00010772475798148662, 0.00018779550737235695, 0.00020642798335757107, 0.00017336195742245764, 0.00024262676015496254, 0.00025856349384412169, 8.8968139607459307e-05, 0.00023077262449078262, 0.0001865724625531584, 0.00012212083674967289, 0.00024440037668682635, 0.00011651118256850168, 0.0002413774054730311, 0.00022372935200110078, 0.00013898831093683839, 7.7220545790623873e-05, 0.00030500962748192251, 0.00027253795997239649, 0.00031707336893305182, 0.00017560659034643322, 0.00020127800235059112, } };
const TfArray<96, int> quant10_zero = { 96, { 0,0,0,0,0,0,0,0,0,0,0,0,0,0,0,0,0,0,0,0,0,0,0,0,0,0,0,0,0,0,0,0,0,0,0,0,0,0,0,0,0,0,0,0,0,0,0,0,0,0,0,0,0,0,0,0,0,0,0,0,0,0,0,0,0,0,0,0,0,0,0,0,0,0,0,0,0,0,0,0,0,0,0,0,0,0,0,0,0,0,0,0,0,0,0,0 } };
const TfLiteAffineQuantization quant10 = { (TfLiteFloatArray*)&quant10_scale, (TfLiteIntArray*)&quant10_zero, 0 };
const MODEL_SECTION(EI_MODEL_SECTION) ALIGN(16) int8_t tensor_data11[1*3*3*96] = { 
  /* [0][0][][] */ 4,127,-19,35,-27,9,25,35,35,-49,-79,7,-23,-9,-8,-18,-105,25,-20,23,68,94,92,112,42,29,-33,4,23,34,25,-26,-96,21,-33,127,40,66,2,14,24,-32,3,87,-73,22,5,-27,-1,-74,-4,-13,15,78,-48,0,-84,-98,-41,-127,-53,14,-127,44,-37,37,53,-25,-3,40,67,-14,-29,10,61,10,-30,-39,-29,29,-44,-71,61,-13,-52,-39,-49,77,-104,-1,-124,47,60,-2,71,28, -23,-28,-24,57,-7,94,-28,22,32,34,-127,64,-78,4,-127,127,-127,87,-17,102,125,55,112,113,27,40,28,50,24,127,3,-127,57,127,15,110,65,120,-33,-89,127,-13,113,127,-9,-60,127,-107,9,-127,-127,-11,2,127,-41,-127,6,28,-127,-79,10,-127,-55,112,-30,75,127,-37,27,127,127,-11,-29,40,-42,-127,11,-43,-71,127,-28,-127,106,-57,-54,10,125,91,108,53,-127,15,127,-27,127,78, 30,-114,13,34,-23,-8,-11,33,24,69,-69,28,-28,77,-33,-41,-39,-5,-25,7,77,74,93,127,21,-10,41,17,27,17,8,-42,-57,-75,-23,96,25,14,3,-33,5,34,-26,46,-75,3,-3,27,19,-59,3,-9,-13,-7,5,-9,45,-106,-18,-70,-127,10,-114,18,49,38,-96,-17,-3,-7,57,-8,25,-33,-20,8,-15,-21,-29,27,-24,-85,43,-2,-46,-10,-63,44,-65,35,-94,57,26,49,28,3, 
  /* [0][1][][] */ 75,21,48,127,-11,-75,127,7,-40,-127,-45,127,2,-127,-84,13,-89,-53,63,18,-123,29,-127,-100,18,93,-118,127,-79,42,127,119,22,101,14,105,-91,59,-13,-18,55,-127,7,86,-127,-35,9,-127,-127,-43,-50,-6,127,-91,74,-32,-127,1,-60,31,-79,-119,-42,64,-102,-37,107,-44,-19,9,-48,-127,-127,52,127,-38,92,72,-68,-37,127,-89,-45,116,-35,-33,6,127,-12,-2,-89,19,13,-91,13,-10, -127,2,-127,94,-87,-127,-110,-127,30,-2,-6,28,-69,-29,-32,86,-72,-127,127,127,4,-127,-123,88,-127,127,31,112,-46,-34,-119,95,-127,117,127,-105,-2,127,127,-127,-40,31,9,114,-39,-127,-46,-115,13,-68,-44,127,-15,28,36,-119,9,44,92,-18,-23,-71,-76,127,6,-127,77,127,39,32,-113,-113,15,52,-107,-111,127,127,118,-56,-50,-33,-127,63,-41,-69,127,123,127,54,-93,-127,-56,-54,30,127, 60,-46,100,80,-11,-37,18,39,-54,99,-72,94,16,3,-59,71,-6,-53,47,-5,-127,33,-94,-57,10,36,127,-52,127,72,25,-120,-19,-110,-5,122,-76,51,-60,-99,9,119,10,108,-16,-14,18,-41,78,-124,-49,-19,71,-98,-127,3,103,3,-123,92,-78,-62,-32,63,127,-19,-51,-16,-22,-12,-2,-44,-112,-127,-7,-44,2,-17,-127,-16,-47,-59,-25,127,-127,-1,15,35,-56,-16,-44,37,-1,127,24,-17, 
  /* [0][2][][] */ 17,-54,42,18,23,25,43,44,-6,-52,-15,-26,52,-39,47,50,-43,59,-5,46,-1,87,28,-93,27,23,-21,-10,-21,14,28,77,-16,-20,-19,9,75,23,37,-10,-17,-35,-13,-32,18,-65,-7,-40,-20,47,-61,32,43,-4,-39,-34,-22,26,3,97,-31,-13,50,1,-52,51,-17,-8,13,29,19,64,-82,0,38,-17,-28,-32,-49,26,18,27,-34,-70,-2,46,38,12,-107,97,6,22,-10,-8,-10,-6, -49,15,125,31,127,83,-19,25,-127,1,-97,-91,127,-30,-39,57,-47,115,-7,-59,-4,68,53,-44,103,-16,5,-19,7,78,10,36,-108,75,32,11,127,93,92,-102,-34,-13,-127,51,9,-41,-4,-111,-15,-43,-97,50,105,-76,-6,-97,2,127,-29,54,106,-105,88,44,-27,10,-51,20,127,-1,-14,98,-112,14,-18,-100,6,-85,-35,3,-14,-23,-82,-97,22,127,115,47,65,127,3,37,-8,-17,-47,35, -3,38,17,29,12,14,-3,52,34,67,-46,1,27,-33,65,61,-13,-3,24,13,8,93,-1,-96,15,31,32,57,20,20,-6,-91,-34,-52,-29,2,64,24,21,-82,-10,-13,23,-47,8,-33,-7,-2,35,-41,-39,13,64,-19,22,-23,29,24,-26,64,-65,-2,3,16,51,45,-100,10,8,27,39,86,-3,-14,0,4,13,-19,-50,31,-3,-12,-34,-18,-54,37,24,4,-59,92,-7,33,-3,9,-7,-18, 
};
const TfArray<4, int> tensor_dimension11 = { 4, { 1,3,3,96 } };
const TfArray<96, float> quant11_scale = { 96, { 0.011403434909880161, 0.0094874817878007889, 0.0065957633778452873, 0.011305149644613266, 0.011202944442629814, 0.0098137818276882172, 0.014221646822988987, 0.0098433448001742363, 0.014127133414149284, 0.0069660213775932789, 0.005587936844676733, 0.010160534642636776, 0.0098968632519245148, 0.0074044265784323215, 0.0064898161217570305, 0.0073767784051597118, 0.0046213059686124325, 0.007082225289195776, 0.0085821328684687614, 0.0050875330343842506, 0.0055228401906788349, 0.0074664573185145855, 0.010796450078487396, 0.0074141677469015121, 0.029688296839594841, 0.006218974944204092, 0.0098208962008357048, 0.0054330029524862766, 0.0095523130148649216, 0.0050354576669633389, 0.01307256892323494, 0.0077450461685657501, 0.0051988260820508003, 0.0047213109210133553, 0.011341126635670662, 0.010901656001806259, 0.0080172521993517876, 0.0079297320917248726, 0.0098261581733822823, 0.0058747641742229462, 0.0084128379821777344, 0.0074586253613233566, 0.010501954704523087, 0.0061529809609055519, 0.006464547012001276, 0.0046520959585905075, 0.011511866934597492, 0.0036210729740560055, 0.0092331981286406517, 0.0039090057834982872, 0.0060324845835566521, 0.0066844122484326363, 0.0083394348621368408, 0.0056512071751058102, 0.010927681811153889, 0.0044631403870880604, 0.0084199653938412666, 0.008593117818236351, 0.0064162323251366615, 0.0057416241616010666, 0.0084759285673499107, 0.0051348353736102581, 0.0053322711028158665, 0.0039514387026429176, 0.006868505384773016, 0.013892464339733124, 0.011281419545412064, 0.010437177494168282, 0.011414889246225357, 0.0094242533668875694, 0.0084291575476527214, 0.0051925103180110455, 0.0047382926568388939, 0.0096622258424758911, 0.013826657086610794, 0.0045783021487295628, 0.0079813087359070778, 0.0087731890380382538, 0.0073678833432495594, 0.010311637073755264, 0.010988947935402393, 0.0037811459042131901, 0.0098078362643718719, 0.0079293297603726387, 0.005190135445445776, 0.010387015528976917, 0.004951725248247385, 0.010258539579808712, 0.0095084970816969872, 0.0059070033021271229, 0.0032818731851875782, 0.012962908484041691, 0.011582863517105579, 0.013475618325173855, 0.0074632796458899975, 0.0085543151944875717, } };
const TfArray<96, int> quant11_zero = { 96, { 0,0,0,0,0,0,0,0,0,0,0,0,0,0,0,0,0,0,0,0,0,0,0,0,0,0,0,0,0,0,0,0,0,0,0,0,0,0,0,0,0,0,0,0,0,0,0,0,0,0,0,0,0,0,0,0,0,0,0,0,0,0,0,0,0,0,0,0,0,0,0,0,0,0,0,0,0,0,0,0,0,0,0,0,0,0,0,0,0,0,0,0,0,0,0,0 } };
const TfLiteAffineQuantization quant11 = { (TfLiteFloatArray*)&quant11_scale, (TfLiteIntArray*)&quant11_zero, 3 };
const MODEL_SECTION(EI_MODEL_SECTION) ALIGN(16) int32_t tensor_data12[96] = { 5031, 3843, 318, -1623, 5236, 9082, 7506, 954, -274, 6978, 1475, -2575, 1917, 3932, 4, -1352, 2558, 5568, -570, 383, 2867, 18016, 6812, -1598, -3183, -892, 11949, 73, 1577, 1138, 7760, -1331, 8484, 2243, 5981, -4206, 411, -3647, 39, 2242, 1915, 366, 1048, -1229, 1135, 1916, 2215, 2622, 3208, 2761, 5266, 2665, -2392, 1369, 1339, 2447, 2123, 1440, 4208, 934, -1231, 5658, 2638, 3577, 3125, 9081, -3896, 2142, 4845, -788, 6441, 1084, 1864, 2761, 4620, 1185, -792, 2324, 2877, 3434, 2289, 1786, 5692, 1033, 1547, 4243, 714, -1586, 13418, 130, 627, -977, 10519, 3644, -58, -789, };
const TfArray<1, int> tensor_dimension12 = { 1, { 96 } };
const TfArray<96, float> quant12_scale = { 96, { 0.00015603697102051228, 0.00011921373516088352, 0.0002630928938742727, 0.00020296064030844718, 0.00013130986189935356, 9.2401802248787135e-05, 0.00011432056635385379, 0.00020953980856575072, 0.00014807767001911998, 0.00010028688120655715, 0.00021216744789853692, 0.00016566851991228759, 0.00020813103765249252, 0.00013470531848724931, 0.00023331376723945141, 0.00014536442176904529, 0.00024599058087915182, 0.00011901123070856556, 0.00013071030844002962, 0.00020887836581096053, 0.00018041559087578207, 5.2707306167576462e-05, 0.00012338359374552965, 0.00013501598732545972, 0.00019670581968966872, 0.00016934188897721469, 8.0625461123418063e-05, 0.00018564243509899825, 0.00017951059271581471, 0.00018726057896856219, 0.00010381404717918485, 0.0002149782667402178, 9.5179297204595059e-05, 0.00017774630396161228, 0.00012649115524254739, 0.00013503919763024896, 0.00019096311007160693, 0.00015194817387964576, 0.00018193326832260936, 0.00017478532390668988, 0.00022957348846830428, 0.00024224056687671691, 0.00030131498351693153, 0.00022337722475640476, 0.0002791229635477066, 0.0001704065507510677, 0.0002464466670062393, 0.00020144601876381785, 0.00019011032418347895, 0.00016513971786480397, 0.00013890964328311384, 0.00017598953854758292, 0.00017895906057674438, 0.00024889482301659882, 0.00022198777878656983, 0.00019284806330688298, 0.00020068396406713873, 0.00016607160796411335, 0.00015347718726843596, 0.00022849156812299043, 0.00022474628349300474, 0.00012294098269194365, 0.00020085333380848169, 0.00017456774367019534, 0.00017249998927582055, 9.1330446593929082e-05, 0.00015503197209909558, 0.00019622143008746207, 0.00011874042684212327, 0.00023901616805233061, 0.00011383709352230653, 0.00017134423251263797, 0.00018524241750128567, 0.00016026903176680207, 0.00013782245514448732, 0.00017565341840963811, 0.00015284429537132382, 0.00015886266191955656, 0.00014647234638687223, 0.00014759843179490417, 0.00019052121206186712, 0.0001904493838082999, 0.00014520212425850332, 0.00014000953524373472, 0.00024102948373183608, 0.00015934499970171601, 0.00021025231399107724, 0.00023167976178228855, 6.6533226345200092e-05, 0.00024192062846850604, 0.00023660404258407652, 0.00022568630811292678, 8.3246130088809878e-05, 0.00012900419824291021, 0.00021076573466416448, 0.00013898174802307039, } };
const TfArray<96, int> quant12_zero = { 96, { 0,0,0,0,0,0,0,0,0,0,0,0,0,0,0,0,0,0,0,0,0,0,0,0,0,0,0,0,0,0,0,0,0,0,0,0,0,0,0,0,0,0,0,0,0,0,0,0,0,0,0,0,0,0,0,0,0,0,0,0,0,0,0,0,0,0,0,0,0,0,0,0,0,0,0,0,0,0,0,0,0,0,0,0,0,0,0,0,0,0,0,0,0,0,0,0 } };
const TfLiteAffineQuantization quant12 = { (TfLiteFloatArray*)&quant12_scale, (TfLiteIntArray*)&quant12_zero, 0 };
const MODEL_SECTION(EI_MODEL_SECTION) ALIGN(16) int8_t tensor_data13[96*1*1*16] = { 
  /* [0][0][][] */ -27,40,1,-45,-24,-9,-29,-15,23,-37,39,-23,78,-72,27,-127, 
  /* [1][0][][] */ -92,31,-101,-127,-80,44,-13,-8,-77,-12,79,-78,52,108,46,11, 
  /* [2][0][][] */ -22,-19,-24,-10,-21,-27,0,-48,-114,84,60,21,37,11,-51,127, 
  /* [3][0][][] */ -41,-52,-8,-35,-75,-5,-59,-115,5,29,32,-64,-49,-28,-127,-30, 
  /* [4][0][][] */ 93,20,3,51,-74,-49,-127,30,-3,46,17,85,-12,23,2,-67, 
  /* [5][0][][] */ -52,75,-72,-4,63,-50,-23,-124,127,-33,-5,-95,-5,-123,-86,-66, 
  /* [6][0][][] */ -33,-21,-25,7,-111,91,27,-7,-49,-30,127,-25,6,27,-125,58, 
  /* [7][0][][] */ -49,127,51,-98,98,68,24,-49,73,64,-71,-76,45,44,5,61, 
  /* [8][0][][] */ -46,-21,55,-28,76,15,112,127,-85,-15,-110,-41,68,122,-29,-119, 
  /* [9][0][][] */ 63,55,103,-18,-91,-22,-42,-127,15,-41,55,19,-14,-80,37,-63, 
  /* [10][0][][] */ -31,-111,48,-94,-127,98,26,31,-48,-51,7,41,-32,38,-79,49, 
  /* [11][0][][] */ 119,-72,-17,65,-127,17,30,20,28,91,-36,46,37,-58,10,72, 
  /* [12][0][][] */ -31,-6,127,10,45,-13,10,45,43,9,36,55,-22,98,-95,-7, 
  /* [13][0][][] */ -30,-27,33,4,18,-2,124,30,-102,22,14,-10,-43,127,95,-44, 
  /* [14][0][][] */ 127,-50,103,-14,68,78,116,36,86,44,69,34,77,-41,29,-77, 
  /* [15][0][][] */ -1,124,-11,-13,18,127,-71,72,-45,-22,-39,-20,-76,112,-53,-55, 
  /* [16][0][][] */ -42,45,103,-21,2,63,-24,-6,4,2,-13,36,61,-15,81,127, 
  /* [17][0][][] */ 49,109,0,-116,41,-63,9,-127,-16,68,-12,50,-61,-8,106,-65, 
  /* [18][0][][] */ -72,2,-36,-63,127,42,-29,-64,44,69,72,51,5,126,-64,-3, 
  /* [19][0][][] */ 37,127,77,56,45,-24,-24,-2,-29,88,44,84,74,59,-72,30, 
  /* [20][0][][] */ 75,-23,6,71,-38,-19,-30,42,-17,-78,-127,-40,96,-1,34,-18, 
  /* [21][0][][] */ -121,-62,-63,127,-60,39,-98,97,-36,19,26,5,-20,70,-61,75, 
  /* [22][0][][] */ 7,-17,-31,-41,127,20,-13,28,44,43,18,54,-33,14,-1,20, 
  /* [23][0][][] */ -89,7,-3,19,14,99,127,123,-48,99,5,-90,-10,74,-69,-41, 
  /* [24][0][][] */ 47,-53,23,-14,64,1,127,-42,75,73,15,24,-88,22,28,-64, 
  /* [25][0][][] */ 112,-64,53,53,13,-11,-10,98,90,-47,-66,-18,127,-49,68,57, 
  /* [26][0][][] */ 40,51,121,85,60,-20,-36,3,-32,41,19,127,12,-65,83,-42, 
  /* [27][0][][] */ -57,36,-60,9,-11,79,25,-75,48,-56,127,30,31,-46,93,80, 
  /* [28][0][][] */ -58,39,-49,-127,70,-41,48,-39,-84,58,-33,1,-5,37,-25,65, 
  /* [29][0][][] */ 100,127,-74,31,22,40,-40,-19,68,76,7,44,-98,-25,-35,82, 
  /* [30][0][][] */ -17,114,-127,-83,97,-41,38,-8,-33,48,-74,-5,37,72,18,66, 
  /* [31][0][][] */ 45,-69,79,60,62,-39,-74,30,-41,-26,23,-45,-69,70,45,127, 
  /* [32][0][][] */ -49,84,-19,29,-84,72,33,34,0,-127,25,-86,17,71,45,43, 
  /* [33][0][][] */ -127,-30,48,104,-2,18,-66,39,-45,-47,16,-6,-8,14,11,114, 
  /* [34][0][][] */ -5,21,-78,-108,61,-9,-2,89,14,-31,-4,-39,-56,-29,-40,127, 
  /* [35][0][][] */ 74,-14,47,-2,8,26,-127,-27,-22,-107,-61,48,10,-27,70,-41, 
  /* [36][0][][] */ -41,26,-127,-11,2,56,-1,52,-33,5,78,50,-4,50,-71,11, 
  /* [37][0][][] */ 49,47,50,-34,48,-120,41,13,-127,53,-81,9,5,69,126,26, 
  /* [38][0][][] */ -12,99,43,-38,19,37,43,-60,18,-2,-127,40,-45,-87,-82,-3, 
  /* [39][0][][] */ 56,94,-91,-127,-10,-4,4,-84,13,38,13,-61,56,5,-114,-60, 
  /* [40][0][][] */ -36,3,-73,-91,-31,24,29,-127,-11,10,4,-43,65,88,28,52, 
  /* [41][0][][] */ -46,-86,6,127,-11,-14,-75,-46,-29,-38,63,-62,-71,-7,45,50, 
  /* [42][0][][] */ -38,78,-1,-127,-6,-7,-17,-26,66,-3,-27,5,13,-20,1,-2, 
  /* [43][0][][] */ -6,34,14,16,123,22,-5,5,28,42,3,-106,-127,-51,2,10, 
  /* [44][0][][] */ 76,-19,13,31,-11,4,8,54,42,-44,51,-13,127,-3,-72,-41, 
  /* [45][0][][] */ -5,-89,-91,22,-20,-114,12,80,26,-50,45,9,-82,127,47,-3, 
  /* [46][0][][] */ -15,-58,39,39,-8,-16,-69,8,7,-12,2,-9,39,16,46,127, 
  /* [47][0][][] */ -25,-45,14,65,4,-7,59,-2,32,-43,-127,-24,44,-27,-55,13, 
  /* [48][0][][] */ -125,119,0,-40,11,67,-50,-127,-16,2,62,-61,40,-93,-47,-7, 
  /* [49][0][][] */ -57,8,31,-49,17,1,121,127,-28,-19,0,37,-31,40,-52,29, 
  /* [50][0][][] */ 3,-20,-67,55,38,-105,-70,-5,-39,95,-38,-3,22,-89,-127,-46, 
  /* [51][0][][] */ -42,66,-29,127,-33,36,-53,-76,-10,-43,20,-22,5,36,-5,107, 
  /* [52][0][][] */ -115,13,21,21,24,23,71,21,19,-86,-53,-22,-81,-74,-127,-22, 
  /* [53][0][][] */ -20,-56,-41,-127,-49,6,27,35,53,-67,-102,24,3,43,73,44, 
  /* [54][0][][] */ -13,-52,4,-5,-59,98,49,17,-30,-104,35,3,-20,8,-127,51, 
  /* [55][0][][] */ -4,-24,-40,42,50,-4,51,69,-68,-71,-127,-36,38,-48,-13,24, 
  /* [56][0][][] */ 21,-42,-49,5,-44,40,-127,15,18,27,5,6,57,-36,36,29, 
  /* [57][0][][] */ -70,-10,50,-2,127,52,70,41,-11,45,-3,-39,-41,71,-77,37, 
  /* [58][0][][] */ 35,10,-14,-4,34,0,-31,-45,59,-127,-51,13,-62,-32,-18,22, 
  /* [59][0][][] */ -26,-7,1,-13,21,27,-38,-25,63,127,-64,14,17,-5,-58,-8, 
  /* [60][0][][] */ 14,-26,2,8,-127,-24,35,7,-16,31,-13,23,-14,-38,43,31, 
  /* [61][0][][] */ 51,64,-126,-50,-76,-32,-90,-85,-48,-4,23,95,93,-34,127,9, 
  /* [62][0][][] */ 24,-18,28,21,-12,-3,9,127,-37,100,13,54,25,45,42,48, 
  /* [63][0][][] */ 20,-127,-38,-15,-82,7,64,-21,8,-8,7,-20,-25,127,111,31, 
  /* [64][0][][] */ -20,13,-103,-50,49,40,-25,-67,-27,-81,91,12,86,-47,-64,127, 
  /* [65][0][][] */ -45,-18,36,55,29,7,103,80,-103,-1,-98,-32,81,127,-56,25, 
  /* [66][0][][] */ -44,-123,-31,-83,-71,-127,41,-11,6,-37,36,74,-72,-52,-53,78, 
  /* [67][0][][] */ -46,-95,-83,-3,-81,119,-28,-127,-97,-49,-73,-115,-24,-29,-63,25, 
  /* [68][0][][] */ 86,14,38,1,-88,38,-68,-75,-104,-127,-40,-34,54,-30,104,-43, 
  /* [69][0][][] */ 45,12,23,-22,-7,-48,-38,29,-8,127,-16,10,16,35,65,-40, 
  /* [70][0][][] */ 28,-32,-59,76,-77,8,9,-91,127,101,17,72,58,-80,-37,51, 
  /* [71][0][][] */ 121,-64,10,127,-99,-16,35,14,105,-1,-10,27,29,-18,56,18, 
  /* [72][0][][] */ -5,-34,24,127,52,-40,-75,104,76,-25,76,27,-54,-34,-42,74, 
  /* [73][0][][] */ 51,15,43,-127,79,-74,-73,25,10,41,-20,-22,-24,-91,-1,-38, 
  /* [74][0][][] */ 127,42,40,-14,-117,-9,17,2,-112,-49,25,-31,44,-35,-9,2, 
  /* [75][0][][] */ 74,127,-88,21,66,35,-24,-7,-34,-42,36,69,-99,53,48,71, 
  /* [76][0][][] */ -85,-35,-9,-54,-98,3,127,-21,-70,18,121,51,-49,-124,-24,108, 
  /* [77][0][][] */ -30,127,-30,19,-62,-48,55,66,29,-52,-30,42,-43,56,34,53, 
  /* [78][0][][] */ 97,27,-84,7,-75,39,-77,13,12,-28,-39,-6,48,-127,15,53, 
  /* [79][0][][] */ -104,-25,97,96,-31,-64,-38,-76,-56,22,30,38,-27,107,-38,127, 
  /* [80][0][][] */ 41,91,25,-86,7,35,127,-19,-4,5,-67,3,78,3,-4,12, 
  /* [81][0][][] */ 33,-44,-17,-122,81,39,12,127,38,-7,8,-76,-11,32,-64,-40, 
  /* [82][0][][] */ 43,49,38,-16,82,-46,9,63,-23,127,-33,60,-3,-60,-2,-65, 
  /* [83][0][][] */ -49,82,6,22,89,85,103,127,49,91,-31,-124,-95,66,-73,-114, 
  /* [84][0][][] */ 4,-88,-35,66,-24,-79,-73,25,-72,76,-58,-23,-127,44,-25,-28, 
  /* [85][0][][] */ -58,98,-68,-10,-48,-30,-64,-32,20,52,-9,-127,-111,-72,-39,17, 
  /* [86][0][][] */ -25,60,127,118,-26,-44,29,13,4,51,-53,-73,44,57,-94,-53, 
  /* [87][0][][] */ -15,22,127,-21,-77,-35,16,3,43,-8,-2,66,-30,-2,-26,-11, 
  /* [88][0][][] */ -53,-84,-127,36,26,20,27,45,-22,-93,-84,-103,107,-33,13,82, 
  /* [89][0][][] */ 50,42,10,-114,0,-66,-42,64,112,-20,61,-127,-15,-12,87,-47, 
  /* [90][0][][] */ -17,69,46,11,-36,40,27,127,-8,-46,-18,116,51,44,-51,110, 
  /* [91][0][][] */ -47,13,29,67,48,69,-7,-101,-67,29,-21,45,-127,-105,-23,-26, 
  /* [92][0][][] */ -29,82,0,-34,-127,-22,-89,50,-32,60,68,107,-14,-30,39,7, 
  /* [93][0][][] */ 114,49,127,37,-125,-60,4,33,-73,-55,-34,-57,32,-46,-9,17, 
  /* [94][0][][] */ -20,-94,40,-127,23,51,-5,0,77,-43,-1,59,12,64,-62,30, 
  /* [95][0][][] */ -42,-85,-36,-54,127,102,-46,8,119,59,-75,76,-23,108,-79,15, 
};
const TfArray<4, int> tensor_dimension13 = { 4, { 96,1,1,16 } };
const TfArray<96, float> quant13_scale = { 96, { 0.0020706274081021547, 0.0015819791005924344, 0.0034912708215415478, 0.00269330944865942, 0.0017424960387870669, 0.0012261818628758192, 0.0015170462429523468, 0.0027806158177554607, 0.0019650065805763006, 0.0013308177003636956, 0.0028154847677797079, 0.0021984390914440155, 0.0027619211468845606, 0.0017875541234388947, 0.0030960987787693739, 0.0019290015334263444, 0.0032643214799463749, 0.0015792917693033814, 0.0017345398664474487, 0.0027718383353203535, 0.0023941341787576675, 0.0006994316354393959, 0.0016373136313632131, 0.001791676739230752, 0.0026103074196726084, 0.002247184980660677, 0.0010699084959924221, 0.0024634951259940863, 0.0023821247741580009, 0.0024849679321050644, 0.0013776235282421112, 0.0028527847025543451, 0.0012630395358428359, 0.0023587124887853861, 0.0016785511979833245, 0.0017919846577569842, 0.0025341010186821222, 0.002016368554905057, 0.0024142740294337273, 0.002319419989362359, 0.0030464648734778166, 0.0032145583536475897, 0.003998482134193182, 0.0029642398003488779, 0.003703991649672389, 0.0022613131441175938, 0.0032703739125281572, 0.0026732103433459997, 0.0025227845180779696, 0.0021914218086749315, 0.0018433459335938096, 0.0023354000877588987, 0.0023748059757053852, 0.0033028610050678253, 0.0029458017088472843, 0.0025591144803911448, 0.0026630978100001812, 0.0022037881426513195, 0.0020366588141769171, 0.0030321076046675444, 0.0029824073426425457, 0.0016314400127157569, 0.002665345324203372, 0.0023165326565504074, 0.0022890933323651552, 0.0012119648745283484, 0.0020572908688336611, 0.0026038794312626123, 0.0015756982611492276, 0.0031717701349407434, 0.0015106304781511426, 0.0022737563122063875, 0.0024581868201494217, 0.0021267873235046864, 0.0018289186991751194, 0.0023309397511184216, 0.0020282601471990347, 0.0021081245504319668, 0.0019437038572505116, 0.0019586470443755388, 0.0025282369460910559, 0.0025272837374359369, 0.0019268477335572243, 0.0018579416209831834, 0.0031984872184693813, 0.0021145252976566553, 0.0027900708373636007, 0.003074415260925889, 0.00088290305575355887, 0.0032103126868605614, 0.0031397610437124968, 0.0029948814772069454, 0.0011046851286664605, 0.0017118996474891901, 0.0027968839276582003, 0.0018443027511239052, } };
const TfArray<96, int> quant13_zero = { 96, { 0,0,0,0,0,0,0,0,0,0,0,0,0,0,0,0,0,0,0,0,0,0,0,0,0,0,0,0,0,0,0,0,0,0,0,0,0,0,0,0,0,0,0,0,0,0,0,0,0,0,0,0,0,0,0,0,0,0,0,0,0,0,0,0,0,0,0,0,0,0,0,0,0,0,0,0,0,0,0,0,0,0,0,0,0,0,0,0,0,0,0,0,0,0,0,0 } };
const TfLiteAffineQuantization quant13 = { (TfLiteFloatArray*)&quant13_scale, (TfLiteIntArray*)&quant13_zero, 0 };
const MODEL_SECTION(EI_MODEL_SECTION) ALIGN(16) int32_t tensor_data14[16] = { -25974, -5193, 3421, -12242, 11728, -11829, 23070, -8473, 8540, -7346, 15005, 10925, 3707, -28017, 2632, 4833, };
const TfArray<1, int> tensor_dimension14 = { 1, { 16 } };
const TfArray<16, float> quant14_scale = { 16, { 8.3802624430973083e-05, 5.9223795688012615e-05, 7.8298355219885707e-05, 7.309749344130978e-05, 9.3999835371505469e-05, 0.00014243421901483089, 7.6183860073797405e-05, 7.7295517257880419e-05, 0.00011069078027503565, 9.0231835201848298e-05, 0.00010395455319667235, 7.7362907177302986e-05, 8.9118650066666305e-05, 0.00010278859554091468, 6.734475027769804e-05, 0.0001067777702701278, } };
const TfArray<16, int> quant14_zero = { 16, { 0,0,0,0,0,0,0,0,0,0,0,0,0,0,0,0 } };
const TfLiteAffineQuantization quant14 = { (TfLiteFloatArray*)&quant14_scale, (TfLiteIntArray*)&quant14_zero, 0 };
const MODEL_SECTION(EI_MODEL_SECTION) ALIGN(16) int8_t tensor_data15[16*1*1*96] = { 
  /* [0][0][][] */ -14,26,27,4,-40,-105,-8,1,-10,-102,47,-15,40,-89,73,37,-89,-29,48,-4,97,46,-63,-19,8,54,127,75,-25,78,103,-24,27,-20,-3,-10,53,38,1,-22,115,21,21,-31,3,-1,6,-52,30,-14,93,-22,-43,10,47,25,3,-29,2,16,-18,24,-40,-12,22,12,54,18,-11,-51,22,19,4,42,6,50,62,-66,53,27,-7,22,53,46,-74,11,-11,61,1,17,-84,-17,25,14,117,100, 
  /* [1][0][][] */ -8,31,-67,-17,-4,-49,98,-113,-53,-40,-45,-67,-31,-55,-12,-45,-44,-34,-47,-14,9,-77,106,-64,-34,31,0,73,-59,1,-18,36,-22,44,37,25,-31,69,-34,77,29,28,-4,-47,30,-15,11,19,-93,7,54,-86,-21,68,41,44,82,39,-105,5,-35,12,28,-30,34,27,122,2,-74,-127,10,-8,14,79,-20,45,-64,-40,115,-33,1,-29,73,-51,-28,-78,-23,-2,-37,-28,53,13,57,-58,-24,67, 
  /* [2][0][][] */ 13,-31,14,-25,78,30,-57,14,-59,66,1,-45,51,-10,26,27,24,-23,-127,-20,-10,-30,5,56,4,9,-42,24,12,-14,-27,69,-27,-38,20,-3,-53,-8,-35,-20,54,27,18,25,-6,28,-1,4,-106,18,-21,42,-11,53,14,-47,29,-16,57,25,18,-13,-20,65,33,-3,-25,21,-30,26,-25,-3,30,43,27,54,-42,14,-29,-47,14,30,19,-30,-12,-54,-23,-49,-8,-24,-14,62,4,-18,80,-89, 
  /* [3][0][][] */ 64,-45,-25,-94,-1,-18,90,0,32,127,-54,-34,-2,-14,-12,39,83,83,-30,17,-63,8,55,14,18,88,36,5,17,-20,-103,74,-27,-30,2,-28,29,-79,-44,73,-6,8,-29,26,82,-75,-25,31,27,-36,27,-46,127,35,0,-13,-2,-21,4,-27,-27,25,56,13,-22,-20,126,-48,-22,-4,-41,53,27,-83,-24,-84,-1,-58,122,-22,-6,-62,-26,-52,-72,-33,73,74,-13,40,-79,-10,-3,-87,-10,24, 
  /* [4][0][][] */ -37,47,33,-23,-40,39,-29,-59,13,-29,-6,-25,16,48,-25,40,-24,-48,-5,-57,32,-20,-56,3,-37,-42,-31,3,-40,127,-50,-11,19,-21,5,-5,40,69,-2,-5,26,15,34,-39,-92,9,82,-33,40,-42,-42,2,-62,44,28,14,28,62,-15,31,-42,-78,-24,1,61,9,-36,-13,6,17,9,-74,-21,53,72,54,-24,-6,-48,38,5,61,48,-52,56,-86,-17,-80,-48,-50,-4,-5,-24,-22,28,-26, 
  /* [5][0][][] */ 4,-12,11,-9,2,1,-12,-8,22,26,-38,31,-10,-21,5,-17,-6,-12,-45,-37,-28,1,-15,34,-2,-59,56,-21,-22,38,4,65,-18,-89,4,15,-40,-15,-17,-10,-44,-4,-5,3,2,7,-71,33,-19,14,43,-4,22,-52,-5,17,-21,-54,9,-39,44,45,11,30,-40,5,100,-6,19,-38,11,4,4,23,32,1,2,7,127,52,2,-13,-42,33,50,69,15,104,-6,-36,-10,5,18,-30,-40,26, 
  /* [6][0][][] */ 38,-59,50,7,-40,98,-51,-66,8,-35,-81,44,-11,8,-49,63,-10,8,6,-26,-94,-14,-76,-43,-12,-49,-11,82,-127,22,2,-11,37,44,-32,2,-4,-38,-21,-41,-29,39,35,14,28,26,-86,-13,11,-9,-98,-110,40,25,-38,-10,8,-17,29,-44,-21,-1,6,26,39,-73,-55,-39,-110,11,-7,-34,-19,-96,7,-71,72,29,-62,37,-47,43,42,-69,63,-36,12,-18,-92,39,-68,94,21,-5,49,-61, 
  /* [7][0][][] */ 11,-1,-53,44,3,31,44,-7,-99,11,75,50,24,-39,-10,-33,3,7,4,-6,-63,-29,-34,-14,72,45,-3,71,48,28,-22,10,-69,-127,12,65,-17,-11,-48,23,-23,-7,22,-71,23,8,48,75,-48,37,-36,28,-1,-43,40,-27,-31,14,-62,-23,73,-22,-28,-8,52,-65,103,-10,-63,-3,58,35,-11,-22,-73,-26,39,-13,103,-51,-5,-1,-82,-39,42,45,-65,50,2,-1,-2,34,62,-23,77,-37, 
  /* [8][0][][] */ -35,-59,14,-3,-22,-12,23,-27,-13,-10,46,37,2,12,-42,7,46,-5,18,5,2,-42,-32,-23,-23,-55,65,0,-46,53,28,-26,10,22,14,21,-55,1,41,-32,5,47,33,-49,-8,28,36,-19,55,-2,56,10,31,19,-53,-9,9,112,-59,8,-20,-50,-22,-42,-80,-37,-12,27,-17,5,44,-24,-17,-127,54,-104,14,-11,-45,32,-35,-7,24,65,62,-80,-37,47,-44,108,35,-15,-55,5,-7,-49, 
  /* [9][0][][] */ -38,-30,-37,25,8,24,14,33,-59,-4,99,51,-39,68,32,-55,-6,23,-31,-41,-1,10,-14,-7,-3,43,1,25,49,-10,10,-4,-22,-29,-8,35,-21,-32,17,3,-27,-19,7,14,22,15,-11,24,-42,17,-18,45,127,1,-12,-17,27,-3,44,19,-33,-25,67,50,13,14,61,-19,30,10,-20,32,-2,-118,-37,-124,-42,-14,32,-16,2,24,9,-41,47,14,-64,-7,2,98,27,36,42,27,-3,22, 
  /* [10][0][][] */ 47,61,11,15,0,20,-40,-26,67,18,-42,29,28,18,-10,-82,-36,1,17,-6,23,-44,-21,-32,27,-18,-106,55,-16,51,-19,1,12,16,-36,-17,13,-12,-20,11,50,-8,51,-42,-17,-42,10,38,17,4,10,-10,-43,-16,8,53,-40,13,-8,-8,-22,-57,-33,17,-3,-18,-109,-29,-42,-20,52,-13,-30,32,34,23,58,7,-101,9,-1,47,-3,-7,5,38,-84,-127,-13,18,-19,23,60,-48,21,35, 
  /* [11][0][][] */ 36,-43,10,-2,-67,37,32,15,89,-15,-39,-61,34,28,-17,18,-12,60,28,-70,14,37,26,24,50,36,50,-2,50,-49,-61,3,-1,104,-107,9,11,-27,61,30,-82,35,-19,1,-51,-29,-16,-16,61,-20,-33,-3,-39,20,-58,100,-44,-6,-18,-46,29,-20,-43,-83,-26,-82,-127,-91,16,-41,-99,58,81,0,10,-15,38,78,-103,-49,2,0,-42,3,-24,-22,80,94,25,-68,7,18,-37,43,101,5, 
  /* [12][0][][] */ 23,39,-51,-11,5,-32,8,34,49,-27,20,-4,0,-13,-13,10,12,-35,-32,17,-5,59,7,55,-59,-38,-127,-1,72,-25,35,2,-38,-96,62,-18,46,-24,-14,23,-14,-53,6,28,47,-20,7,-21,-91,1,-60,85,39,-12,36,-70,-20,9,-46,-55,13,55,60,32,-27,7,6,33,121,35,20,33,1,-16,-15,-3,-49,-44,27,-59,37,-76,19,-60,8,3,0,-99,-10,32,-39,35,14,46,23,49, 
  /* [13][0][][] */ 1,30,-87,31,24,25,-3,17,18,76,-55,56,-28,-1,58,-61,16,55,54,25,-54,-75,-14,23,41,37,-25,20,28,50,30,-23,-33,77,-3,41,27,-67,-80,-49,9,-9,29,14,44,21,-36,53,-66,46,-13,19,-47,-59,66,45,-3,-49,10,-15,24,30,-19,1,17,100,127,38,44,45,-57,2,29,47,-87,52,15,-60,121,-47,-10,-31,13,-21,39,76,-38,-27,-36,-33,1,65,38,-1,55,56, 
  /* [14][0][][] */ -5,49,9,22,-87,-36,3,11,-50,-20,59,-9,-90,-14,40,-11,-50,42,-55,33,-27,29,-115,4,-47,5,-76,-125,9,1,56,74,-52,48,26,-24,-13,-69,-38,-25,34,-29,48,-32,-35,45,-89,26,0,-55,69,20,-1,15,-17,30,-71,26,-20,27,36,44,5,9,34,-35,5,-89,20,51,57,34,-48,50,24,29,44,10,36,18,-62,97,24,-127,78,-30,-14,9,-104,-14,-39,8,-33,44,40,29, 
  /* [15][0][][] */ 72,-17,25,35,29,-7,8,-5,9,29,-60,-10,75,65,-9,-25,-7,21,-66,42,-2,-37,19,46,48,-22,75,22,65,-24,-51,41,35,42,2,-76,51,35,36,65,62,37,-22,-4,-29,-127,17,-22,-33,-13,-5,14,-29,-41,1,58,-28,-11,-11,-7,8,-41,-54,56,25,43,-74,39,-8,-18,-6,-11,4,-95,-36,-87,-21,40,-110,26,79,-18,0,11,-40,22,-15,2,43,65,-6,-51,-9,-42,24,-54, 
};
const TfArray<4, int> tensor_dimension15 = { 4, { 16,1,1,96 } };
const TfArray<16, float> quant15_scale = { 16, { 0.003561611520126462, 0.0025170112494379282, 0.0033276800531893969, 0.003106643445789814, 0.0039949929341673851, 0.0060534542426466942, 0.0032378139439970255, 0.0032850594725459814, 0.0047043580561876297, 0.0038348529487848282, 0.004418068565428257, 0.0032879235222935677, 0.0037875424604862928, 0.0043685152195394039, 0.0028621519450098276, 0.0045380550436675549, } };
const TfArray<16, int> quant15_zero = { 16, { 0,0,0,0,0,0,0,0,0,0,0,0,0,0,0,0 } };
const TfLiteAffineQuantization quant15 = { (TfLiteFloatArray*)&quant15_scale, (TfLiteIntArray*)&quant15_zero, 0 };
const MODEL_SECTION(EI_MODEL_SECTION) ALIGN(16) int32_t tensor_data16[96] = { 12655, -2352, -6961, 11165, 68, -1896, -360, -37, 1750, -6170, -639, -2031, 12830, -4997, -2914, -7800, 1699, -448, -8397, -2115, -2985, 86, -3555, -936, 94, 13004, -7969, -7917, 1257, -1361, 820, -3272, 8782, 238, -1359, -1388, 857, 11273, 610, 7718, -149, 2305, 498, 8196, 774, 99, 13281, 5549, -9102, -394, -3798, -2945, -175, -2598, -7525, 4754, 4, 2966, 266, 5181, -771, -1123, -2630, 4010, 11033, 1241, 12755, 9627, -1009, -143, 9004, -657, 711, 2194, -1961, 435, 19694, 18719, 8610, 9908, 11950, -903, 7234, 11595, -3124, -2080, 5615, -6489, 8545, 2275, -8345, -5968, -1686, 1133, 15104, -1302, };
const TfArray<1, int> tensor_dimension16 = { 1, { 96 } };
const TfArray<96, float> quant16_scale = { 96, { 9.7344360256101936e-05, 0.0002882359258364886, 0.00012266938574612141, 9.7147792985197157e-05, 0.00026784415240399539, 0.0004829317913390696, 9.6546849817968905e-05, 0.00020369907724671066, 0.0003868373460136354, 0.00018535331764724106, 0.00032826475217007101, 0.00017571354692336172, 0.00010033619037130848, 0.00012132807023590431, 0.00023566775780636817, 0.0001479956554248929, 0.00028867810033261776, 0.00038582822890020907, 0.00016796149429865181, 0.00043178297346457839, 0.00026113985222764313, 0.00022875252761878073, 0.00015423449804075062, 0.00021183970966376364, 0.0019473255379125476, 0.00011215762060601264, 0.0002398889628238976, 0.00012176786549389362, 0.00042196601862087846, 0.00015460472786799073, 0.00021103695326019078, 0.00021754074259661138, 0.00011883840488735586, 0.00057757511967793107, 0.00017246643255930394, 0.00018997113511431962, 0.00034173470339737833, 0.00010300472058588639, 0.00025168497813865542, 0.000150679872604087, 0.00054649094818159938, 0.00020274336566217244, 0.00019414690905250609, 0.0001293734967475757, 0.00020376047177705914, 0.00026831429568119347, 0.00011622898455243558, 0.00019790331134572625, 0.00015325998538173735, 0.00042633313569240272, 0.00028405894408933818, 0.00021351304894778877, 0.00013654917711392045, 0.00032141350675374269, 0.00018897933478001505, 0.00021344015840440989, 0.00021582991757895797, 0.00046155496966093779, 0.00049003306776285172, 0.00020246041822247207, 0.00036116412957198918, 0.00026071522734127939, 0.00013728367048315704, 0.00018016083049587905, 0.00019447146041784436, 0.00044156270450912416, 0.00011464023555163294, 0.00011754541628761217, 0.00029756815638393164, 0.00047331646783277392, 0.00011410759179852903, 0.00032533545163460076, 0.00067684397799894214, 0.00016701384447515011, 0.00018646121316123754, 0.00023975546355359256, 6.5493433794472367e-05, 0.00010414109419798478, 0.00012091927783330902, 0.00015191927377600223, 9.9627533927559853e-05, 0.00026157381944358349, 0.00015257394989021122, 0.00025781951262615621, 7.8648183261975646e-05, 0.00044978511868976057, 0.00018572757835499942, 0.00023576617240905762, 0.0001453648874303326, 0.00021093249961268157, 0.00010611413017613813, 0.00023131497437134385, 0.00037962585338391364, 0.00017411154112778604, 9.3754984845872968e-05, 0.00031886406941339374, } };
const TfArray<96, int> quant16_zero = { 96, { 0,0,0,0,0,0,0,0,0,0,0,0,0,0,0,0,0,0,0,0,0,0,0,0,0,0,0,0,0,0,0,0,0,0,0,0,0,0,0,0,0,0,0,0,0,0,0,0,0,0,0,0,0,0,0,0,0,0,0,0,0,0,0,0,0,0,0,0,0,0,0,0,0,0,0,0,0,0,0,0,0,0,0,0,0,0,0,0,0,0,0,0,0,0,0,0 } };
const TfLiteAffineQuantization quant16 = { (TfLiteFloatArray*)&quant16_scale, (TfLiteIntArray*)&quant16_zero, 0 };
const MODEL_SECTION(EI_MODEL_SECTION) ALIGN(16) int8_t tensor_data17[1*3*3*96] = { 
  /* [0][0][][] */ -89,-1,-8,-38,69,10,29,-52,-9,30,-9,-32,-39,31,1,-5,-27,15,6,-20,-8,34,-64,45,-16,-42,-39,13,18,1,38,11,8,2,-3,-18,-2,-75,-45,-8,15,28,46,-33,-21,43,-42,-25,-12,6,-14,74,-92,34,69,-33,-7,-14,2,-16,-7,-13,20,-73,-24,-40,-39,-82,-24,27,-12,-6,36,-3,-15,-13,-41,-66,127,-68,-51,3,-127,-49,54,1,29,26,-94,-24,8,-23,4,31,18,-3, -16,46,42,-127,-41,23,98,-47,6,-9,-49,4,-108,24,-69,34,-13,64,61,-37,-17,127,25,126,9,31,47,101,127,58,127,-13,-43,-15,-118,-42,-7,-17,127,-49,-35,-127,-26,-64,39,-25,-1,-25,74,6,27,127,-101,41,-48,-21,-71,2,-11,31,-11,-127,-127,-7,-60,-1,15,-112,-6,2,-40,117,-127,-23,17,-31,-127,-127,-1,-127,-68,9,-27,-78,127,51,-39,37,-127,-10,59,-7,7,127,-29,-104, -64,6,9,-7,58,19,65,-73,-19,45,-20,24,-60,18,3,-8,-24,-4,-15,-30,-23,24,-28,45,-10,-68,-21,-17,17,3,30,25,3,-2,-8,47,-11,-109,-78,-5,6,87,-3,-29,-16,-32,-17,-26,28,0,-14,24,-5,3,62,-28,48,-8,12,-23,-11,-4,-41,-120,-32,-46,127,-65,-29,18,0,4,15,-9,-15,13,-36,-27,-35,-83,-9,0,-78,-63,67,-7,34,-23,-60,-52,8,50,17,30,-17,-6, 
  /* [0][1][][] */ -89,-8,52,-71,40,103,-4,-21,-7,-10,-12,-52,-127,26,20,104,-20,47,35,45,40,-14,127,-18,41,14,55,15,-20,23,1,0,-127,-15,66,-4,-11,-91,-17,-127,-7,26,99,-40,-63,127,-127,-98,85,65,12,-13,-127,45,80,-50,37,-35,36,-26,8,-5,98,-43,-33,17,-21,-14,5,-1,-127,-4,19,127,8,-74,-68,-95,-70,-27,-36,-12,-22,-61,72,33,-112,46,-20,127,109,-55,127,3,-64,4, 127,127,127,124,-127,-127,127,-52,127,127,-63,-95,-67,127,-19,127,127,-127,127,127,127,-95,60,-127,-127,-127,127,127,-106,127,-39,127,-50,127,127,-102,127,94,27,-28,127,5,-127,-127,127,-14,114,123,127,-127,127,-82,99,127,-127,127,-127,127,-127,127,-74,111,75,-127,123,127,-17,127,-100,-127,-1,-127,-6,118,127,85,13,-32,103,-87,-43,127,53,127,63,46,-127,127,-11,55,2,6,-82,-21,-127,-27, -119,-21,48,-89,-9,55,-30,4,-44,17,6,127,-97,27,15,97,-34,56,42,22,35,-30,59,-27,40,-6,24,14,-18,0,-4,2,-67,-30,87,127,-6,-127,-65,-118,-13,7,36,-34,-73,-81,-124,-127,102,78,-9,-53,124,1,117,-64,113,-24,49,-49,-4,-10,-108,-50,-72,-11,-55,-57,-6,11,-67,-24,4,-94,7,127,-55,-68,-45,20,-52,-19,-76,-91,29,48,-88,43,-13,-104,127,127,-33,-18,-69,9, 
  /* [0][2][][] */ -99,-43,-9,-23,31,5,-7,55,-18,25,41,-27,25,-11,3,-29,-16,-2,-32,-11,10,-10,16,-7,5,-72,-21,20,-23,-58,-24,6,28,-1,5,-9,-13,-93,-6,37,-39,53,0,4,11,24,-101,-26,-13,10,-7,35,30,-50,51,-35,0,-41,13,-61,7,30,23,100,-35,-33,119,60,34,34,-42,2,-23,-15,-18,-32,-22,-60,-29,19,-90,0,-20,-7,-3,0,68,-21,-16,-5,-55,12,-14,-23,-4,-8, -49,-50,52,-125,-22,-3,52,127,-42,83,127,-21,-71,70,127,55,-11,-51,85,-38,-18,-47,82,46,4,2,53,71,-2,-37,-107,-25,-15,-36,-118,11,-93,-73,75,0,-48,-107,-34,81,30,-26,-96,-14,18,6,6,2,84,-2,-26,-50,-63,-49,43,-91,127,38,119,81,-127,-61,-17,-22,127,30,-71,13,-5,-43,12,-23,-33,-67,13,93,-127,-11,-43,-57,12,-127,24,10,-51,-3,89,16,24,-114,-65,127, -74,13,31,-15,17,-6,20,27,-23,37,19,63,20,1,-4,4,-24,21,4,-27,1,-12,-35,-9,1,-56,-21,15,-27,-41,-30,9,31,-1,21,-3,-23,-22,-17,49,-39,-83,-5,-1,-8,-28,-89,-15,-21,9,-1,-19,-4,-61,43,-33,73,-25,16,-38,2,20,12,74,-30,-17,-19,39,24,12,-88,25,-55,-50,-30,-28,-22,-23,102,-16,-85,-11,-10,6,1,12,65,4,-13,-13,-36,42,8,-21,-9,0, 
};
const TfArray<4, int> tensor_dimension17 = { 4, { 1,3,3,96 } };
const TfArray<96, float> quant17_scale = { 96, { 0.0041371351107954979, 0.012250026687979698, 0.005213448777794838, 0.0041287811473011971, 0.011383376084268093, 0.020524600520730019, 0.0041032410226762295, 0.0086572105064988136, 0.016440587118268013, 0.0078775156289339066, 0.013951252214610577, 0.0074678258970379829, 0.0042642881162464619, 0.0051564429886639118, 0.010015879757702351, 0.0062898155301809311, 0.012268818914890289, 0.01639769971370697, 0.0071383635513484478, 0.01835077628493309, 0.011098443530499935, 0.0097219822928309441, 0.006554966326802969, 0.0090031875297427177, 0.082761332392692566, 0.0047666989266872406, 0.01019528042525053, 0.0051751341670751572, 0.017933554947376251, 0.0065707010217010975, 0.0089690703898668289, 0.0092454813420772552, 0.0050506321713328362, 0.024546941742300987, 0.0073298234492540359, 0.0080737732350826263, 0.014523724094033241, 0.0043777003884315491, 0.010696611367166042, 0.0064038941636681557, 0.023225864395499229, 0.0086165927350521088, 0.0082512432709336281, 0.0054983734153211117, 0.0086598200723528862, 0.011403357610106468, 0.0049397316761314869, 0.0084108905866742134, 0.006513549480587244, 0.01811915822327137, 0.012072505429387093, 0.0090743042528629303, 0.0058033401146531105, 0.013660074211657047, 0.0080316215753555298, 0.0090712066739797592, 0.0091727711260318756, 0.019616086035966873, 0.020826404914259911, 0.0086045674979686737, 0.015349475666880608, 0.011080396361649036, 0.0058345557190477848, 0.0076568350195884705, 0.0082650370895862579, 0.018766414374113083, 0.0048722098581492901, 0.0049956799484789371, 0.012646646238863468, 0.020115949213504791, 0.004849572665989399, 0.013826756738126278, 0.02876586839556694, 0.0070980885066092014, 0.0079246014356613159, 0.010189606808125973, 0.0027834710199385881, 0.0044259964488446712, 0.0051390691660344601, 0.0064565693028271198, 0.0042341700755059719, 0.01111688744276762, 0.0064843930304050446, 0.010957329533994198, 0.0033425476867705584, 0.019115867093205452, 0.0078934216871857643, 0.010020062327384949, 0.006178007461130619, 0.0089646307751536369, 0.0045098504051566124, 0.009830886498093605, 0.016134098172187805, 0.0073997406288981438, 0.0039845868013799191, 0.013551722280681133, } };
const TfArray<96, int> quant17_zero = { 96, { 0,0,0,0,0,0,0,0,0,0,0,0,0,0,0,0,0,0,0,0,0,0,0,0,0,0,0,0,0,0,0,0,0,0,0,0,0,0,0,0,0,0,0,0,0,0,0,0,0,0,0,0,0,0,0,0,0,0,0,0,0,0,0,0,0,0,0,0,0,0,0,0,0,0,0,0,0,0,0,0,0,0,0,0,0,0,0,0,0,0,0,0,0,0,0,0 } };
const TfLiteAffineQuantization quant17 = { (TfLiteFloatArray*)&quant17_scale, (TfLiteIntArray*)&quant17_zero, 3 };
const MODEL_SECTION(EI_MODEL_SECTION) ALIGN(16) int32_t tensor_data18[96] = { 1378, 9605, 207, 885, 3786, 10517, 348, 2324, 9745, -1018, 13670, 3716, 2398, 479, 2626, 137, 3903, 5995, 265, 13248, 1130, 9272, -1389, 2007, -8036, 1379, 2531, 1159, 7097, 1894, 2754, 6065, 1470, 12082, 4380, 3209, 3497, 1989, 2748, 3459, 13716, 1531, 2413, 1588, 3094, 9382, 6684, 10768, 973, -1143, 2322, 2640, 2929, -3102, 8422, 106, 3765, 14635, 1032, 2194, 2518, 8884, 2969, -1133, 18063, 6751, 2440, 3016, 9097, 2726, 2748, 550, -4302, 3907, 2253, 4163, 561, 12424, 4337, 5720, 2940, 1795, 4070, 17654, -310, 14146, 6874, 2029, -1094, 3281, 2703, 9228, 4914, 2787, 4298, 9514, };
const TfArray<1, int> tensor_dimension18 = { 1, { 96 } };
const TfArray<96, float> quant18_scale = { 96, { 0.00025377506972290576, 8.8882414274848998e-05, 0.00030237995088100433, 0.00029551860643550754, 0.00015963030455168337, 8.4626954048871994e-05, 0.00017607853806111962, 0.00018098510918207467, 9.2157039034646004e-05, 0.00019829678058158606, 5.9233068895991892e-05, 0.00011986189929302782, 0.00016357534332200885, 0.00044074445031583309, 0.00018819786782842129, 0.00015429782797582448, 0.00016935510211624205, 0.00012903346214443445, 0.00015366828301921487, 7.2387047111988068e-05, 0.00018982197798322886, 8.4391729615163058e-05, 0.0001854438305599615, 0.00013484673399943858, 8.5424406279344112e-05, 0.0001548429427202791, 0.00020781737111974508, 0.00028335224487818778, 0.00012522160250227898, 0.0001747020723996684, 0.00023679253354202956, 9.9145858257543296e-05, 0.00025954050943255424, 7.247750909300521e-05, 0.00013236560334917158, 0.00018321280367672443, 0.00014738300524186343, 0.00022841570898890495, 0.00015289925795514137, 0.00014699953317176551, 7.1696806116960943e-05, 0.00019619570230133832, 0.00016487453831359744, 0.00010204417776549235, 0.00011778737825807184, 8.4758255979977548e-05, 0.00011536759120645002, 6.8884801294188946e-05, 0.00027902156580239534, 0.00026608785265125334, 0.00017748185200616717, 0.00021904788445681334, 0.0001807273511076346, 0.00012279996008146554, 8.3231527241878211e-05, 0.00030353097827173769, 0.00011180840374436229, 6.4521031163167208e-05, 0.00012748203880619258, 0.00018808897584676743, 0.00015491506201215088, 9.2452079115901142e-05, 0.00020080004469491541, 0.00020789321570191532, 4.9173904699273407e-05, 0.0001088629724108614, 0.00020278267038520426, 0.00016652033082209527, 7.647268648725003e-05, 0.00014624328468926251, 0.00016785031766630709, 0.00019850140961352736, 0.00012660780339501798, 0.00015770376194268465, 0.00019521874492056668, 0.00016694898658897728, 0.00016917518223635852, 7.1434580604545772e-05, 0.00015500739391427487, 0.00014195000403560698, 0.00013991480227559805, 0.00014375857426784933, 0.00012126908404752612, 5.6426048104185611e-05, 0.00015061946760397404, 6.2445506046060473e-05, 0.00010296544496668503, 0.00021901323634665459, 0.00018576088768895715, 0.00019405219063628465, 0.00013338807912077755, 9.0621455456130207e-05, 0.00011864474799949676, 0.00016034775762818754, 0.00011461351823527366, 7.8916753409430385e-05, } };
const TfArray<96, int> quant18_zero = { 96, { 0,0,0,0,0,0,0,0,0,0,0,0,0,0,0,0,0,0,0,0,0,0,0,0,0,0,0,0,0,0,0,0,0,0,0,0,0,0,0,0,0,0,0,0,0,0,0,0,0,0,0,0,0,0,0,0,0,0,0,0,0,0,0,0,0,0,0,0,0,0,0,0,0,0,0,0,0,0,0,0,0,0,0,0,0,0,0,0,0,0,0,0,0,0,0,0 } };
const TfLiteAffineQuantization quant18 = { (TfLiteFloatArray*)&quant18_scale, (TfLiteIntArray*)&quant18_zero, 0 };
const MODEL_SECTION(EI_MODEL_SECTION) ALIGN(16) int8_t tensor_data19[96*1*1*16] = { 
  /* [0][0][][] */ 37,-25,8,62,-127,-7,96,31,64,78,-3,44,15,19,21,57, 
  /* [1][0][][] */ -35,29,-84,6,127,99,3,-6,-33,16,-94,16,-60,90,-70,-50, 
  /* [2][0][][] */ -46,59,75,-23,48,91,25,36,20,-26,42,-9,67,-127,5,27, 
  /* [3][0][][] */ 127,-13,16,14,10,20,-4,34,50,21,-55,5,-30,67,-2,54, 
  /* [4][0][][] */ -83,-27,-9,24,-83,27,-88,-9,-23,34,4,-57,-33,36,-13,127, 
  /* [5][0][][] */ -71,-4,33,15,127,26,-20,4,-39,30,-2,23,-74,40,-39,-25, 
  /* [6][0][][] */ -127,20,-54,22,-26,-89,83,18,14,-48,-69,54,10,-10,-59,-10, 
  /* [7][0][][] */ 65,107,39,-43,40,21,127,-2,39,-26,8,54,96,-27,-51,-10, 
  /* [8][0][][] */ -71,-14,-42,63,-21,84,-53,-58,32,-33,77,85,127,73,-125,-6, 
  /* [9][0][][] */ -31,-127,-43,71,-33,-44,2,73,38,32,12,67,-62,39,-3,-18, 
  /* [10][0][][] */ -10,2,-111,0,-99,115,101,-76,14,-100,49,-8,51,127,-41,109, 
  /* [11][0][][] */ -43,-114,5,-13,26,127,39,1,-16,40,29,-63,-9,98,-123,112, 
  /* [12][0][][] */ -27,-73,-65,82,-87,-109,-2,59,34,71,-2,127,-23,-66,-31,-17, 
  /* [13][0][][] */ -70,-30,-45,5,-17,-1,27,33,-8,127,1,-26,36,24,13,-18, 
  /* [14][0][][] */ -91,-48,-34,-77,-36,18,-32,-89,127,-44,67,12,73,-7,-80,-102, 
  /* [15][0][][] */ 5,-127,93,-44,-42,-31,11,68,-4,-56,-91,-32,99,-40,-35,-35, 
  /* [16][0][][] */ 1,-32,37,-61,48,10,-26,-34,95,-121,64,-5,-37,-15,-81,-127, 
  /* [17][0][][] */ -25,7,-1,-41,25,-13,-53,6,53,-69,20,80,96,-102,-30,-127, 
  /* [18][0][][] */ 76,28,-25,-126,-5,-41,123,-38,16,50,-17,53,-40,66,11,-127, 
  /* [19][0][][] */ -51,-32,7,-100,-102,22,-47,3,32,-33,31,-127,-36,-35,-53,-14, 
  /* [20][0][][] */ 10,41,62,-127,72,15,-41,66,-118,-113,42,-59,-17,108,-32,2, 
  /* [21][0][][] */ 16,-77,-127,32,47,33,59,92,-45,-70,-7,-20,80,-57,-13,21, 
  /* [22][0][][] */ 50,-17,88,7,18,10,92,32,10,118,33,32,11,27,127,0, 
  /* [23][0][][] */ -127,-61,-5,33,85,48,5,37,-17,21,-17,-71,31,80,93,115, 
  /* [24][0][][] */ 5,-26,35,15,-6,-96,26,-47,23,94,-127,45,-11,-80,83,-95, 
  /* [25][0][][] */ 104,-69,127,118,28,-12,-5,28,-78,89,64,-50,-10,35,52,-31, 
  /* [26][0][][] */ -21,28,22,35,-51,104,-12,38,-56,-32,-87,41,9,21,41,-127, 
  /* [27][0][][] */ 45,3,5,-65,-43,-26,-98,14,-96,-9,-92,-35,-87,47,-14,127, 
  /* [28][0][][] */ -62,7,4,-21,27,-21,-127,1,11,-29,-18,-33,-1,-82,-49,-36, 
  /* [29][0][][] */ -35,-127,-6,119,-28,-13,123,8,73,65,-124,66,34,-24,-51,78, 
  /* [30][0][][] */ 40,-53,-42,25,-127,15,37,-22,14,29,5,-28,10,34,18,40, 
  /* [31][0][][] */ -127,-5,-2,113,-48,0,-50,9,-27,-71,-2,-58,-33,-62,-14,95, 
  /* [32][0][][] */ -119,-76,-87,-4,-81,-55,-11,-35,127,61,-56,-76,20,57,36,-21, 
  /* [33][0][][] */ -36,-1,-94,26,-92,-72,42,15,-123,35,-47,-33,-11,127,72,88, 
  /* [34][0][][] */ 24,39,-34,25,-20,-17,23,10,-8,-87,0,18,-22,6,37,127, 
  /* [35][0][][] */ 21,-33,-39,-15,-121,13,127,-22,38,64,14,3,47,116,19,79, 
  /* [36][0][][] */ -44,15,-57,57,127,0,40,54,-70,32,-83,-78,-19,8,25,56, 
  /* [37][0][][] */ -115,52,-5,-84,3,-84,-16,6,-14,-51,4,45,60,-68,22,-127, 
  /* [38][0][][] */ -12,44,51,-40,-78,-42,-127,-29,-50,-35,48,55,-82,-73,85,6, 
  /* [39][0][][] */ -12,-9,-3,31,13,78,86,-53,-28,39,-18,-40,9,86,23,127, 
  /* [40][0][][] */ 83,14,69,29,-29,-25,0,10,-76,60,-26,25,-15,-18,127,26, 
  /* [41][0][][] */ -22,-30,7,32,-97,108,-22,58,-51,32,-110,-8,18,31,22,-127, 
  /* [42][0][][] */ -9,-69,26,-26,127,25,68,19,-23,-97,-52,-12,-18,-19,-4,65, 
  /* [43][0][][] */ -58,-39,-48,-58,61,15,57,68,-127,-73,-109,-86,92,21,-28,113, 
  /* [44][0][][] */ -37,-70,-66,-98,25,107,41,-2,-34,-93,-46,44,-71,45,60,127, 
  /* [45][0][][] */ -18,-55,-110,24,-127,99,-76,-88,43,-25,90,-43,-30,-25,-33,51, 
  /* [46][0][][] */ 42,-13,-9,-5,20,-113,1,67,-3,-42,55,74,-62,-69,59,-127, 
  /* [47][0][][] */ -100,8,-69,42,-71,65,51,7,12,118,127,88,-111,19,14,121, 
  /* [48][0][][] */ 42,2,-68,-82,30,-64,22,45,44,-79,-7,22,-50,14,-36,-127, 
  /* [49][0][][] */ 58,44,16,55,-20,-37,24,44,-47,127,-30,20,-57,-18,72,77, 
  /* [50][0][][] */ 9,12,19,21,-127,-20,-19,-45,65,27,29,59,-33,-63,8,7, 
  /* [51][0][][] */ 29,-4,-9,-127,-23,76,14,-38,18,18,18,-37,51,24,-15,-10, 
  /* [52][0][][] */ 4,-39,-18,-70,81,-95,-2,-30,1,-27,127,-78,44,20,-19,110, 
  /* [53][0][][] */ -77,-43,38,-30,-53,-127,23,-105,-34,101,-92,107,-48,2,35,-84, 
  /* [54][0][][] */ 100,83,33,-15,-103,-43,-81,-127,2,20,43,67,-87,-45,44,-18, 
  /* [55][0][][] */ 9,-9,-40,76,-57,12,27,-28,6,127,36,48,13,-9,8,29, 
  /* [56][0][][] */ 15,-96,-87,69,-106,6,-2,43,117,29,127,60,-30,-1,50,70, 
  /* [57][0][][] */ 12,-23,36,-114,88,2,-45,40,-33,-2,41,127,42,-60,105,-8, 
  /* [58][0][][] */ 113,-40,-2,-87,14,43,10,93,71,106,-9,126,25,-24,127,-28, 
  /* [59][0][][] */ -43,19,-27,-66,-5,-20,-12,50,-22,12,-57,-60,-127,-73,55,11, 
  /* [60][0][][] */ 56,-29,-3,-37,11,12,13,-27,27,127,-2,66,-27,-68,14,-33, 
  /* [61][0][][] */ 65,65,28,-55,-95,-127,-29,-26,-71,-1,-21,45,-32,-45,88,89, 
  /* [62][0][][] */ -26,37,-50,43,-17,127,-33,9,-63,3,-30,26,-9,53,36,-53, 
  /* [63][0][][] */ 15,-18,-70,-127,-24,-35,80,-9,-9,-68,-20,31,-17,56,16,-44, 
  /* [64][0][][] */ -38,45,-24,22,20,-46,47,84,-127,-43,-41,-34,-29,91,60,97, 
  /* [65][0][][] */ -69,-33,-30,-5,68,20,-50,-71,-85,-60,-12,-8,-127,95,-28,44, 
  /* [66][0][][] */ -43,60,-3,31,-34,127,-29,15,-92,29,-32,67,-12,50,54,-77, 
  /* [67][0][][] */ 9,-42,-76,-13,46,-54,5,-82,6,39,22,127,-68,-11,-39,-72, 
  /* [68][0][][] */ -33,-103,-26,127,-35,4,18,115,18,54,121,40,-84,112,19,77, 
  /* [69][0][][] */ 40,47,36,-70,82,9,-10,111,54,64,47,99,127,-38,3,-92, 
  /* [70][0][][] */ 71,12,40,-60,105,13,-91,-56,-127,-123,-29,31,-3,51,-122,-11, 
  /* [71][0][][] */ -6,-62,22,-51,19,-20,35,26,-55,65,-127,-70,31,34,-1,26, 
  /* [72][0][][] */ 18,50,79,-3,-88,-24,-85,-94,-23,72,-45,37,15,79,-127,-20, 
  /* [73][0][][] */ 3,-46,-24,-28,45,-118,26,-45,84,95,108,-7,40,-19,-63,127, 
  /* [74][0][][] */ 9,24,-19,100,-78,-20,95,28,62,72,33,111,127,33,-73,14, 
  /* [75][0][][] */ -41,44,-41,29,-56,127,-15,27,-29,29,-19,48,-27,54,38,-51, 
  /* [76][0][][] */ -79,82,-71,57,-127,-3,-63,34,94,57,-20,-12,33,-57,-121,44, 
  /* [77][0][][] */ 92,113,-113,127,52,47,42,50,10,42,108,-24,50,43,104,23, 
  /* [78][0][][] */ 4,-41,-14,-54,62,-94,29,-29,26,33,127,-21,5,-5,-48,122, 
  /* [79][0][][] */ -52,62,19,39,11,-71,-64,-15,-127,5,22,5,90,56,-69,-47, 
  /* [80][0][][] */ -92,54,85,-31,75,78,47,-127,-71,36,-95,-38,17,-61,24,110, 
  /* [81][0][][] */ 107,80,-40,-10,25,-28,85,127,-111,117,-56,-34,-32,24,88,123, 
  /* [82][0][][] */ 65,127,-61,-116,-11,-44,99,-51,4,28,-61,79,55,-62,67,-48, 
  /* [83][0][][] */ 10,-27,6,12,9,-2,-45,-79,39,-19,74,13,23,-56,-44,-127, 
  /* [84][0][][] */ -127,-91,-36,-3,-22,89,88,-2,44,43,118,59,44,82,-59,25, 
  /* [85][0][][] */ 84,27,83,-73,104,-46,-34,109,-10,127,-53,38,-47,116,95,4, 
  /* [86][0][][] */ -103,68,-24,24,28,73,2,30,65,36,127,-11,-39,92,2,-1, 
  /* [87][0][][] */ 16,-52,29,-42,43,-127,26,-34,51,-5,64,-29,34,-48,-45,61, 
  /* [88][0][][] */ -92,83,57,1,127,-68,38,27,-102,-69,110,-96,93,120,91,-126, 
  /* [89][0][][] */ -26,35,-22,27,-35,127,-17,35,-52,4,-24,25,-14,51,30,-57, 
  /* [90][0][][] */ 39,-81,29,-5,127,16,37,16,-13,-67,-96,-21,-17,12,-75,25, 
  /* [91][0][][] */ -24,58,3,-54,-49,-121,-127,60,-80,40,-118,-104,-112,-37,43,-51, 
  /* [92][0][][] */ 77,58,43,15,-127,-105,7,11,-17,53,-29,-47,-23,-82,52,-17, 
  /* [93][0][][] */ 12,-127,-67,49,-11,-45,25,123,63,74,4,60,8,69,-8,-21, 
  /* [94][0][][] */ 99,7,127,4,43,-17,25,25,32,84,7,83,29,33,86,-6, 
  /* [95][0][][] */ -80,-31,-39,9,127,-4,43,56,-46,-34,-88,-67,38,61,-53,89, 
};
const TfArray<4, int> tensor_dimension19 = { 4, { 96,1,1,16 } };
const TfArray<96, float> quant19_scale = { 96, { 0.0047399220056831837, 0.0016601146198809147, 0.0056477468460798264, 0.0055195926688611507, 0.0029815188609063625, 0.0015806325245648623, 0.0032887333072721958, 0.0033803763799369335, 0.0017212769016623497, 0.0037037178408354521, 0.0011063345009461045, 0.0022387385834008455, 0.0030552027747035027, 0.0082320701330900192, 0.0035150938201695681, 0.0028819206636399031, 0.0031631551682949066, 0.0024100418668240309, 0.0028701622504740953, 0.0013520198408514261, 0.0035454283934086561, 0.0015762391267344356, 0.0034636547788977623, 0.0025186201091855764, 0.0015955270500853658, 0.0028921021148562431, 0.0038815399166196585, 0.0052923536859452724, 0.002338845282793045, 0.0032630239147692919, 0.0044227279722690582, 0.0018518115393817425, 0.0048476066440343857, 0.0013537094928324223, 0.0024722781963646412, 0.0034219846129417419, 0.0027527681086212397, 0.0042662685737013817, 0.0028557986952364445, 0.0027456057723611593, 0.0013391277752816677, 0.003664474468678236, 0.0030794688500463963, 0.0019059453625231981, 0.0021999913733452559, 0.0015830849297344685, 0.0021547954529523849, 0.0012866061879321933, 0.0052114669233560562, 0.004969895351678133, 0.0033149437513202429, 0.0040912996046245098, 0.0033755621407181025, 0.0022936146706342697, 0.0015545692294836044, 0.0056692450307309628, 0.0020883181132376194, 0.001205101259984076, 0.0023810649290680885, 0.0035130600444972515, 0.0028934492729604244, 0.0017267875373363495, 0.0037504727952182293, 0.0038829564582556486, 0.00091845291899517179, 0.0020333044230937958, 0.0037875035777688026, 0.0031102083157747984, 0.0014283299678936601, 0.0027314808685332537, 0.0031350494828075171, 0.0037075397558510303, 0.002364736283197999, 0.0029455355834215879, 0.0036462272983044386, 0.003118214663118124, 0.0031597947236150503, 0.0013342300662770867, 0.0028951738495379686, 0.0026512923650443554, 0.00261327950283885, 0.0026850721333175898, 0.0022650214377790689, 0.0010539059294387698, 0.0028132174629718065, 0.0011663353070616722, 0.0019231524784117937, 0.0040906523354351521, 0.0034695765934884548, 0.0036244387738406658, 0.0024913756642490625, 0.0016925957752391696, 0.0022160049993544817, 0.0029949191957712173, 0.0021407110616564751, 0.0014739794423803687, } };
const TfArray<96, int> quant19_zero = { 96, { 0,0,0,0,0,0,0,0,0,0,0,0,0,0,0,0,0,0,0,0,0,0,0,0,0,0,0,0,0,0,0,0,0,0,0,0,0,0,0,0,0,0,0,0,0,0,0,0,0,0,0,0,0,0,0,0,0,0,0,0,0,0,0,0,0,0,0,0,0,0,0,0,0,0,0,0,0,0,0,0,0,0,0,0,0,0,0,0,0,0,0,0,0,0,0,0 } };
const TfLiteAffineQuantization quant19 = { (TfLiteFloatArray*)&quant19_scale, (TfLiteIntArray*)&quant19_zero, 0 };
const MODEL_SECTION(EI_MODEL_SECTION) ALIGN(16) int32_t tensor_data20[16] = { -8773, 10461, -18528, -282, 10718, -14556, -41991, -6652, -7396, 10408, -13174, -12855, 9243, -9685, -5460, -3528, };
const TfArray<1, int> tensor_dimension20 = { 1, { 16 } };
const TfArray<16, float> quant20_scale = { 16, { 0.00013689427578356117, 0.00014371544239111245, 0.00010726360051194206, 0.00016368071374017745, 0.00010010045662056655, 0.00015224239905364811, 9.6026415121741593e-05, 0.00014035253843758255, 7.3820832767523825e-05, 7.0574118581134826e-05, 0.00016659546236041933, 0.00012889348727185279, 0.00011325130617478862, 9.4925155281089246e-05, 0.00013249693438410759, 0.00013998268696013838, } };
const TfArray<16, int> quant20_zero = { 16, { 0,0,0,0,0,0,0,0,0,0,0,0,0,0,0,0 } };
const TfLiteAffineQuantization quant20 = { (TfLiteFloatArray*)&quant20_scale, (TfLiteIntArray*)&quant20_zero, 0 };
const MODEL_SECTION(EI_MODEL_SECTION) ALIGN(16) int8_t tensor_data21[16*1*1*48] = { 
  /* [0][0][][] */ 27,29,31,-38,80,75,-39,63,-9,121,2,56,-21,41,-10,35,28,90,59,-68,-77,84,-10,44,48,50,37,66,-41,-47,-10,99,-29,22,-83,71,57,-127,-32,11,19,-22,68,-2,7,-54,-52,-7, 
  /* [1][0][][] */ -55,-2,-83,-43,2,92,-54,21,-26,-29,-39,28,61,-5,-32,-27,-33,-29,-8,21,-56,33,-97,-23,-44,-37,48,70,-18,-30,38,-44,-1,-49,-29,51,1,-49,127,-37,-31,32,-62,-18,25,47,41,11, 
  /* [2][0][][] */ 5,16,62,-23,-18,-79,20,19,94,80,-72,17,112,-48,127,97,-83,-20,-17,24,92,-81,-31,-91,18,-37,34,-65,34,45,-51,3,20,-16,53,54,-75,16,7,-32,30,21,54,-3,-1,-94,92,-72, 
  /* [3][0][][] */ 33,9,-22,-34,34,104,16,2,39,-53,27,-27,-36,8,13,49,-40,-70,42,-114,-4,-9,-23,-20,-39,76,127,70,-15,-38,36,26,61,-27,101,28,-50,-63,3,40,14,18,-10,3,9,29,0,-16, 
  /* [4][0][][] */ 93,-9,13,-32,93,75,63,5,48,-25,-96,46,39,-18,12,-3,-83,-109,-21,-110,-9,14,-42,-13,-82,127,-97,114,-63,-60,31,81,33,-48,15,-28,-16,17,-13,44,-55,-13,-10,38,-44,98,-40,-73, 
  /* [5][0][][] */ 2,-8,-52,7,-10,45,20,-28,69,48,41,84,59,-23,34,0,-37,127,-20,32,16,-4,-63,-13,38,-5,-74,-37,-16,36,23,-16,-42,-4,50,5,-33,4,-89,19,78,-26,26,51,-22,11,-37,30, 
  /* [6][0][][] */ 60,6,11,69,2,-24,100,-50,22,67,127,122,37,43,-61,49,37,-29,-51,86,53,-56,-34,55,-94,92,91,-11,111,48,-27,-3,91,-54,-106,4,96,31,3,6,6,64,61,-52,82,112,59,8, 
  /* [7][0][][] */ -105,-13,-26,30,-59,-50,22,32,64,105,-41,-69,-110,11,-22,-13,-65,100,-7,107,-42,21,24,37,-29,-87,-23,-74,41,34,5,4,-19,26,15,-28,-2,-60,127,9,2,30,22,-10,53,73,-24,-8, 
  /* [8][0][][] */ -11,-99,55,-66,69,-59,68,-32,-21,-118,19,12,-28,8,33,36,-12,7,-52,113,-1,56,-18,27,66,-2,-48,-29,-127,-42,-69,-105,15,-73,-4,115,-10,24,105,30,16,-12,90,103,-7,-76,-34,91, 
  /* [9][0][][] */ 21,-52,20,-70,27,89,-48,59,31,-62,-27,-32,5,-39,122,-14,11,-110,28,40,-87,42,79,-29,-24,-96,-24,76,59,65,-35,-38,-52,37,-1,127,-39,-53,-66,-24,-32,-6,37,118,54,97,-64,9, 
  /* [10][0][][] */ -9,22,-26,-12,20,25,-69,-41,59,35,67,-11,-35,-9,50,-56,-60,127,-19,47,-2,-11,23,22,-51,35,1,90,32,1,-31,-14,69,5,-6,19,-4,-53,-49,21,-82,-3,22,-21,12,48,29,29, 
  /* [11][0][][] */ -33,41,-11,35,31,48,2,-3,16,22,-127,-76,59,20,-15,-48,-2,24,-62,-52,-8,9,102,-4,41,15,-9,35,9,27,-8,67,30,-11,-56,7,39,83,95,6,37,-24,63,1,-52,-14,85,13, 
  /* [12][0][][] */ -53,-8,29,30,-56,-69,7,5,-24,-42,-127,0,68,-87,25,47,34,100,88,-125,-27,48,-42,-67,-7,-26,39,-46,13,11,-22,75,64,78,40,-35,-60,-38,20,-4,-43,7,50,-5,29,-15,-45,-39, 
  /* [13][0][][] */ -47,-121,-41,-116,10,19,67,21,-115,2,117,-69,62,37,127,9,120,19,-6,-102,76,-89,118,-8,-64,-5,-34,-3,-42,-91,-108,29,54,-28,-67,54,49,-59,76,-66,-16,56,66,51,65,-16,106,-46, 
  /* [14][0][][] */ 67,17,-54,-5,-58,21,-86,-32,-18,63,58,46,-8,-66,6,-55,73,-105,16,5,80,-52,38,-9,-1,127,-92,7,-31,-28,-91,-3,127,58,91,-20,-78,24,-21,40,-24,-39,118,-14,-46,-42,-54,52, 
  /* [15][0][][] */ -59,9,32,24,93,5,4,24,22,69,-9,45,48,-17,-38,-14,15,39,2,-36,28,-31,-45,-51,58,-58,-41,57,-29,10,20,-4,-51,9,127,-24,-77,8,60,-7,-42,-25,21,8,-29,-27,-10,6, 
};
const TfArray<4, int> tensor_dimension21 = { 4, { 16,1,1,48 } };
const TfArray<16, float> quant21_scale = { 16, { 0.0058180065825581551, 0.0061079063452780247, 0.0045587029308080673, 0.0069564301520586014, 0.0042542694136500359, 0.0064703021198511124, 0.0040811225771903992, 0.0059649827890098095, 0.0031373854726552963, 0.0029994000215083361, 0.0070803072303533554, 0.0054779732599854469, 0.0048131803050637245, 0.0040343189612030983, 0.0056311194784939289, 0.0059492639265954494, } };
const TfArray<16, int> quant21_zero = { 16, { 0,0,0,0,0,0,0,0,0,0,0,0,0,0,0,0 } };
const TfLiteAffineQuantization quant21 = { (TfLiteFloatArray*)&quant21_scale, (TfLiteIntArray*)&quant21_zero, 0 };
const MODEL_SECTION(EI_MODEL_SECTION) ALIGN(16) int32_t tensor_data22[48] = { 15972, -1448, 21305, 212, 16389, -2496, 45430, 1103, 12690, 40806, 5780, 37577, -1775, 9121, 31840, 34321, -1523, 4315, 1271, 56434, -1018, 17703, 2193, 15077, 15639, 41438, 1414, -2496, -5433, 16659, 24641, -270, 1220, 1739, 928, 12928, 8346, 32478, 1777, 18386, 23494, -1730, 710, 13650, -1254, 1661, 37166, 26207, };
const TfArray<1, int> tensor_dimension22 = { 1, { 48 } };
